<?xml version="1.0" encoding="UTF-8" standalone="yes"?>
<PMML xmlns="http://www.dmg.org/PMML-4_4" xmlns:data="http://jpmml.org/jpmml-model/InlineTable" version="4.4">
	<Header>
		<Application name="SkLearn2PMML package" version="0.111.1"/>
		<Timestamp>2024-11-24T18:28:04Z</Timestamp>
	</Header>
	<MiningBuildTask>
		<Extension name="repr">PMMLPipeline(steps=[('classifier', RandomForestClassifier(max_depth=20, n_estimators=50))])</Extension>
	</MiningBuildTask>
	<DataDictionary>
		<DataField name="y" optype="categorical" dataType="string">
			<Value value="BENIGN"/>
			<Value value="DoS Attack"/>
		</DataField>
		<DataField name="Total Fwd Packet" optype="continuous" dataType="float"/>
		<DataField name="Total Bwd packets" optype="continuous" dataType="float"/>
		<DataField name="Total Length of Fwd Packet" optype="continuous" dataType="float"/>
		<DataField name="Total Length of Bwd Packet" optype="continuous" dataType="float"/>
		<DataField name="Fwd Packet Length Max" optype="continuous" dataType="float"/>
		<DataField name="Fwd Packet Length Std" optype="continuous" dataType="float"/>
		<DataField name="Bwd Packet Length Max" optype="continuous" dataType="float"/>
		<DataField name="Bwd Packet Length Mean" optype="continuous" dataType="float"/>
		<DataField name="Bwd Packet Length Std" optype="continuous" dataType="float"/>
		<DataField name="Flow IAT Min" optype="continuous" dataType="float"/>
		<DataField name="Fwd IAT Min" optype="continuous" dataType="float"/>
		<DataField name="Bwd IAT Total" optype="continuous" dataType="float"/>
		<DataField name="Bwd IAT Std" optype="continuous" dataType="float"/>
		<DataField name="Bwd IAT Min" optype="continuous" dataType="float"/>
		<DataField name="Fwd PSH Flags" optype="continuous" dataType="float"/>
		<DataField name="Bwd PSH Flags" optype="continuous" dataType="float"/>
		<DataField name="Fwd Header Length" optype="continuous" dataType="float"/>
		<DataField name="Packet Length Max" optype="continuous" dataType="float"/>
		<DataField name="Packet Length Mean" optype="continuous" dataType="float"/>
		<DataField name="Packet Length Std" optype="continuous" dataType="float"/>
		<DataField name="Packet Length Variance" optype="continuous" dataType="float"/>
		<DataField name="FIN Flag Count" optype="continuous" dataType="float"/>
		<DataField name="PSH Flag Count" optype="continuous" dataType="float"/>
		<DataField name="ACK Flag Count" optype="continuous" dataType="float"/>
		<DataField name="Average Packet Size" optype="continuous" dataType="float"/>
		<DataField name="Fwd Segment Size Avg" optype="continuous" dataType="float"/>
		<DataField name="Bwd Segment Size Avg" optype="continuous" dataType="float"/>
		<DataField name="FWD Init Win Bytes" optype="continuous" dataType="float"/>
		<DataField name="Bwd Init Win Bytes" optype="continuous" dataType="float"/>
		<DataField name="Fwd Act Data Pkts" optype="continuous" dataType="float"/>
	</DataDictionary>
	<MiningModel functionName="classification" algorithmName="sklearn.ensemble._forest.RandomForestClassifier">
		<MiningSchema>
			<MiningField name="y" usageType="target"/>
			<MiningField name="FWD Init Win Bytes"/>
			<MiningField name="Fwd Packet Length Max"/>
			<MiningField name="Bwd Init Win Bytes"/>
			<MiningField name="Fwd Header Length"/>
			<MiningField name="Fwd Packet Length Std"/>
			<MiningField name="Packet Length Max"/>
			<MiningField name="Fwd IAT Min"/>
			<MiningField name="Fwd Segment Size Avg"/>
			<MiningField name="Total Length of Fwd Packet"/>
			<MiningField name="Bwd Packet Length Max"/>
			<MiningField name="Fwd Act Data Pkts"/>
			<MiningField name="Packet Length Mean"/>
			<MiningField name="ACK Flag Count"/>
			<MiningField name="PSH Flag Count"/>
			<MiningField name="Bwd Segment Size Avg"/>
			<MiningField name="Packet Length Std"/>
			<MiningField name="Flow IAT Min"/>
			<MiningField name="Bwd PSH Flags"/>
			<MiningField name="Total Length of Bwd Packet"/>
			<MiningField name="FIN Flag Count"/>
			<MiningField name="Fwd PSH Flags"/>
			<MiningField name="Average Packet Size"/>
			<MiningField name="Bwd Packet Length Std"/>
			<MiningField name="Packet Length Variance"/>
			<MiningField name="Bwd IAT Total"/>
			<MiningField name="Bwd IAT Min"/>
			<MiningField name="Bwd Packet Length Mean"/>
			<MiningField name="Total Bwd packets"/>
			<MiningField name="Bwd IAT Std"/>
			<MiningField name="Total Fwd Packet"/>
		</MiningSchema>
		<Output>
			<OutputField name="probability(BENIGN)" optype="continuous" dataType="double" feature="probability" value="BENIGN"/>
			<OutputField name="probability(DoS Attack)" optype="continuous" dataType="double" feature="probability" value="DoS Attack"/>
		</Output>
		<LocalTransformations>
			<DerivedField name="double(FWD Init Win Bytes)" optype="continuous" dataType="double">
				<FieldRef field="FWD Init Win Bytes"/>
			</DerivedField>
			<DerivedField name="double(Fwd Packet Length Max)" optype="continuous" dataType="double">
				<FieldRef field="Fwd Packet Length Max"/>
			</DerivedField>
			<DerivedField name="double(Bwd Init Win Bytes)" optype="continuous" dataType="double">
				<FieldRef field="Bwd Init Win Bytes"/>
			</DerivedField>
			<DerivedField name="double(Fwd Header Length)" optype="continuous" dataType="double">
				<FieldRef field="Fwd Header Length"/>
			</DerivedField>
			<DerivedField name="double(Fwd Packet Length Std)" optype="continuous" dataType="double">
				<FieldRef field="Fwd Packet Length Std"/>
			</DerivedField>
			<DerivedField name="double(Packet Length Max)" optype="continuous" dataType="double">
				<FieldRef field="Packet Length Max"/>
			</DerivedField>
			<DerivedField name="double(Fwd IAT Min)" optype="continuous" dataType="double">
				<FieldRef field="Fwd IAT Min"/>
			</DerivedField>
			<DerivedField name="double(Fwd Segment Size Avg)" optype="continuous" dataType="double">
				<FieldRef field="Fwd Segment Size Avg"/>
			</DerivedField>
			<DerivedField name="double(Total Length of Fwd Packet)" optype="continuous" dataType="double">
				<FieldRef field="Total Length of Fwd Packet"/>
			</DerivedField>
			<DerivedField name="double(Bwd Packet Length Max)" optype="continuous" dataType="double">
				<FieldRef field="Bwd Packet Length Max"/>
			</DerivedField>
			<DerivedField name="double(Fwd Act Data Pkts)" optype="continuous" dataType="double">
				<FieldRef field="Fwd Act Data Pkts"/>
			</DerivedField>
			<DerivedField name="double(Packet Length Mean)" optype="continuous" dataType="double">
				<FieldRef field="Packet Length Mean"/>
			</DerivedField>
			<DerivedField name="double(ACK Flag Count)" optype="continuous" dataType="double">
				<FieldRef field="ACK Flag Count"/>
			</DerivedField>
			<DerivedField name="double(PSH Flag Count)" optype="continuous" dataType="double">
				<FieldRef field="PSH Flag Count"/>
			</DerivedField>
			<DerivedField name="double(Bwd Segment Size Avg)" optype="continuous" dataType="double">
				<FieldRef field="Bwd Segment Size Avg"/>
			</DerivedField>
			<DerivedField name="double(Packet Length Std)" optype="continuous" dataType="double">
				<FieldRef field="Packet Length Std"/>
			</DerivedField>
			<DerivedField name="double(Flow IAT Min)" optype="continuous" dataType="double">
				<FieldRef field="Flow IAT Min"/>
			</DerivedField>
			<DerivedField name="double(Bwd PSH Flags)" optype="continuous" dataType="double">
				<FieldRef field="Bwd PSH Flags"/>
			</DerivedField>
			<DerivedField name="double(Total Length of Bwd Packet)" optype="continuous" dataType="double">
				<FieldRef field="Total Length of Bwd Packet"/>
			</DerivedField>
			<DerivedField name="double(FIN Flag Count)" optype="continuous" dataType="double">
				<FieldRef field="FIN Flag Count"/>
			</DerivedField>
			<DerivedField name="double(Fwd PSH Flags)" optype="continuous" dataType="double">
				<FieldRef field="Fwd PSH Flags"/>
			</DerivedField>
			<DerivedField name="double(Average Packet Size)" optype="continuous" dataType="double">
				<FieldRef field="Average Packet Size"/>
			</DerivedField>
			<DerivedField name="double(Bwd Packet Length Std)" optype="continuous" dataType="double">
				<FieldRef field="Bwd Packet Length Std"/>
			</DerivedField>
			<DerivedField name="double(Packet Length Variance)" optype="continuous" dataType="double">
				<FieldRef field="Packet Length Variance"/>
			</DerivedField>
			<DerivedField name="double(Bwd IAT Total)" optype="continuous" dataType="double">
				<FieldRef field="Bwd IAT Total"/>
			</DerivedField>
			<DerivedField name="double(Bwd IAT Min)" optype="continuous" dataType="double">
				<FieldRef field="Bwd IAT Min"/>
			</DerivedField>
			<DerivedField name="double(Bwd Packet Length Mean)" optype="continuous" dataType="double">
				<FieldRef field="Bwd Packet Length Mean"/>
			</DerivedField>
			<DerivedField name="double(Total Bwd packets)" optype="continuous" dataType="double">
				<FieldRef field="Total Bwd packets"/>
			</DerivedField>
			<DerivedField name="double(Bwd IAT Std)" optype="continuous" dataType="double">
				<FieldRef field="Bwd IAT Std"/>
			</DerivedField>
			<DerivedField name="double(Total Fwd Packet)" optype="continuous" dataType="double">
				<FieldRef field="Total Fwd Packet"/>
			</DerivedField>
		</LocalTransformations>
		<Segmentation multipleModelMethod="average" missingPredictionTreatment="returnMissing">
			<Segment id="1">
				<True/>
				<TreeModel functionName="classification" missingValueStrategy="nullPrediction">
					<MiningSchema>
						<MiningField name="double(FWD Init Win Bytes)"/>
						<MiningField name="double(Fwd Packet Length Max)"/>
						<MiningField name="double(Bwd Init Win Bytes)"/>
						<MiningField name="double(Fwd Header Length)"/>
						<MiningField name="double(Fwd Packet Length Std)"/>
						<MiningField name="double(Packet Length Max)"/>
						<MiningField name="double(Fwd IAT Min)"/>
						<MiningField name="double(Fwd Segment Size Avg)"/>
						<MiningField name="double(Total Length of Fwd Packet)"/>
						<MiningField name="double(Bwd Packet Length Max)"/>
						<MiningField name="double(Fwd Act Data Pkts)"/>
						<MiningField name="double(Packet Length Mean)"/>
						<MiningField name="double(ACK Flag Count)"/>
						<MiningField name="double(PSH Flag Count)"/>
						<MiningField name="double(Bwd Segment Size Avg)"/>
						<MiningField name="double(Packet Length Std)"/>
						<MiningField name="double(Flow IAT Min)"/>
						<MiningField name="double(Bwd PSH Flags)"/>
						<MiningField name="double(Total Length of Bwd Packet)"/>
					</MiningSchema>
					<Node>
						<True/>
						<Node>
							<SimplePredicate field="double(FWD Init Win Bytes)" operator="lessOrEqual" value="26764.0"/>
							<Node>
								<SimplePredicate field="double(Fwd Packet Length Max)" operator="lessOrEqual" value="20.5"/>
								<Node score="BENIGN" recordCount="1">
									<SimplePredicate field="double(Fwd Packet Length Max)" operator="lessOrEqual" value="4.5"/>
									<ScoreDistribution value="BENIGN" recordCount="1"/>
									<ScoreDistribution value="DoS Attack" recordCount="0"/>
								</Node>
								<Node score="BENIGN" recordCount="1">
									<SimplePredicate field="double(Bwd Init Win Bytes)" operator="lessOrEqual" value="105.5"/>
									<ScoreDistribution value="BENIGN" recordCount="1"/>
									<ScoreDistribution value="DoS Attack" recordCount="0"/>
								</Node>
								<Node score="DoS Attack" recordCount="1">
									<True/>
									<ScoreDistribution value="BENIGN" recordCount="0"/>
									<ScoreDistribution value="DoS Attack" recordCount="1"/>
								</Node>
							</Node>
							<Node>
								<SimplePredicate field="double(Fwd Header Length)" operator="lessOrEqual" value="-40.0"/>
								<Node score="DoS Attack" recordCount="1">
									<SimplePredicate field="double(Fwd Packet Length Std)" operator="lessOrEqual" value="1.7367585897445679"/>
									<ScoreDistribution value="BENIGN" recordCount="0"/>
									<ScoreDistribution value="DoS Attack" recordCount="1"/>
								</Node>
								<Node score="BENIGN" recordCount="1">
									<True/>
									<ScoreDistribution value="BENIGN" recordCount="1"/>
									<ScoreDistribution value="DoS Attack" recordCount="0"/>
								</Node>
							</Node>
							<Node>
								<SimplePredicate field="double(Packet Length Max)" operator="lessOrEqual" value="32.5"/>
								<Node>
									<SimplePredicate field="double(Fwd IAT Min)" operator="lessOrEqual" value="1.5"/>
									<Node score="BENIGN" recordCount="1">
										<SimplePredicate field="double(Fwd Segment Size Avg)" operator="lessOrEqual" value="31.0"/>
										<ScoreDistribution value="BENIGN" recordCount="1"/>
										<ScoreDistribution value="DoS Attack" recordCount="0"/>
									</Node>
									<Node score="DoS Attack" recordCount="1">
										<True/>
										<ScoreDistribution value="BENIGN" recordCount="0"/>
										<ScoreDistribution value="DoS Attack" recordCount="1"/>
									</Node>
								</Node>
								<Node score="BENIGN" recordCount="1">
									<SimplePredicate field="double(Fwd Segment Size Avg)" operator="lessOrEqual" value="31.5"/>
									<ScoreDistribution value="BENIGN" recordCount="1"/>
									<ScoreDistribution value="DoS Attack" recordCount="0"/>
								</Node>
								<Node score="DoS Attack" recordCount="1">
									<True/>
									<ScoreDistribution value="BENIGN" recordCount="0"/>
									<ScoreDistribution value="DoS Attack" recordCount="1"/>
								</Node>
							</Node>
							<Node score="BENIGN" recordCount="1">
								<SimplePredicate field="double(Fwd Segment Size Avg)" operator="lessOrEqual" value="229.97916412353516"/>
								<ScoreDistribution value="BENIGN" recordCount="1"/>
								<ScoreDistribution value="DoS Attack" recordCount="0"/>
							</Node>
							<Node score="DoS Attack" recordCount="1">
								<SimplePredicate field="double(Total Length of Fwd Packet)" operator="lessOrEqual" value="250.0"/>
								<ScoreDistribution value="BENIGN" recordCount="0"/>
								<ScoreDistribution value="DoS Attack" recordCount="1"/>
							</Node>
							<Node>
								<SimplePredicate field="double(Bwd Packet Length Max)" operator="lessOrEqual" value="0.5"/>
								<Node>
									<SimplePredicate field="double(Fwd Act Data Pkts)" operator="lessOrEqual" value="0.5"/>
									<Node score="BENIGN" recordCount="1">
										<SimplePredicate field="double(Packet Length Mean)" operator="lessOrEqual" value="197.875"/>
										<ScoreDistribution value="BENIGN" recordCount="1"/>
										<ScoreDistribution value="DoS Attack" recordCount="0"/>
									</Node>
									<Node score="BENIGN" recordCount="1">
										<SimplePredicate field="double(Fwd Header Length)" operator="lessOrEqual" value="26.0"/>
										<ScoreDistribution value="BENIGN" recordCount="1"/>
										<ScoreDistribution value="DoS Attack" recordCount="0"/>
									</Node>
									<Node score="DoS Attack" recordCount="1">
										<True/>
										<ScoreDistribution value="BENIGN" recordCount="0"/>
										<ScoreDistribution value="DoS Attack" recordCount="1"/>
									</Node>
								</Node>
								<Node score="BENIGN" recordCount="1">
									<True/>
									<ScoreDistribution value="BENIGN" recordCount="1"/>
									<ScoreDistribution value="DoS Attack" recordCount="0"/>
								</Node>
							</Node>
							<Node score="BENIGN" recordCount="1">
								<True/>
								<ScoreDistribution value="BENIGN" recordCount="1"/>
								<ScoreDistribution value="DoS Attack" recordCount="0"/>
							</Node>
						</Node>
						<Node>
							<SimplePredicate field="double(Packet Length Max)" operator="lessOrEqual" value="973.5"/>
							<Node>
								<SimplePredicate field="double(Packet Length Mean)" operator="lessOrEqual" value="87.17857360839844"/>
								<Node>
									<SimplePredicate field="double(Fwd Packet Length Std)" operator="lessOrEqual" value="100.23720169067383"/>
									<Node score="BENIGN" recordCount="1">
										<SimplePredicate field="double(Packet Length Mean)" operator="lessOrEqual" value="24.0"/>
										<ScoreDistribution value="BENIGN" recordCount="1"/>
										<ScoreDistribution value="DoS Attack" recordCount="0"/>
									</Node>
									<Node score="DoS Attack" recordCount="1">
										<SimplePredicate field="double(Packet Length Mean)" operator="lessOrEqual" value="24.633333206176758"/>
										<ScoreDistribution value="BENIGN" recordCount="0"/>
										<ScoreDistribution value="DoS Attack" recordCount="1"/>
									</Node>
									<Node score="BENIGN" recordCount="1">
										<True/>
										<ScoreDistribution value="BENIGN" recordCount="1"/>
										<ScoreDistribution value="DoS Attack" recordCount="0"/>
									</Node>
								</Node>
								<Node>
									<SimplePredicate field="double(FWD Init Win Bytes)" operator="lessOrEqual" value="28041.5"/>
									<Node score="DoS Attack" recordCount="1">
										<SimplePredicate field="double(ACK Flag Count)" operator="lessOrEqual" value="20.0"/>
										<ScoreDistribution value="BENIGN" recordCount="0"/>
										<ScoreDistribution value="DoS Attack" recordCount="1"/>
									</Node>
									<Node score="BENIGN" recordCount="1">
										<True/>
										<ScoreDistribution value="BENIGN" recordCount="1"/>
										<ScoreDistribution value="DoS Attack" recordCount="0"/>
									</Node>
								</Node>
								<Node score="BENIGN" recordCount="1">
									<True/>
									<ScoreDistribution value="BENIGN" recordCount="1"/>
									<ScoreDistribution value="DoS Attack" recordCount="0"/>
								</Node>
							</Node>
							<Node>
								<SimplePredicate field="double(ACK Flag Count)" operator="lessOrEqual" value="20.5"/>
								<Node>
									<SimplePredicate field="double(PSH Flag Count)" operator="lessOrEqual" value="5.5"/>
									<Node>
										<SimplePredicate field="double(Bwd Segment Size Avg)" operator="lessOrEqual" value="129.1999969482422"/>
										<Node>
											<SimplePredicate field="double(Bwd Packet Length Max)" operator="lessOrEqual" value="153.0"/>
											<Node score="BENIGN" recordCount="1">
												<SimplePredicate field="double(Packet Length Std)" operator="lessOrEqual" value="59.05402374267578"/>
												<ScoreDistribution value="BENIGN" recordCount="1"/>
												<ScoreDistribution value="DoS Attack" recordCount="0"/>
											</Node>
											<Node score="DoS Attack" recordCount="1">
												<True/>
												<ScoreDistribution value="BENIGN" recordCount="0"/>
												<ScoreDistribution value="DoS Attack" recordCount="1"/>
											</Node>
										</Node>
										<Node score="BENIGN" recordCount="1">
											<True/>
											<ScoreDistribution value="BENIGN" recordCount="1"/>
											<ScoreDistribution value="DoS Attack" recordCount="0"/>
										</Node>
									</Node>
									<Node>
										<SimplePredicate field="double(Flow IAT Min)" operator="lessOrEqual" value="32.5"/>
										<Node>
											<SimplePredicate field="double(Bwd PSH Flags)" operator="lessOrEqual" value="1.5"/>
											<Node>
												<SimplePredicate field="double(Fwd IAT Min)" operator="lessOrEqual" value="90095.0"/>
												<Node score="BENIGN" recordCount="1">
													<SimplePredicate field="double(Total Length of Bwd Packet)" operator="lessOrEqual" value="504.0"/>
													<ScoreDistribution value="BENIGN" recordCount="1"/>
													<ScoreDistribution value="DoS Attack" recordCount="0"/>
												</Node>
												<Node score="DoS Attack" recordCount="1">
													<True/>
													<ScoreDistribution value="BENIGN" recordCount="0"/>
													<ScoreDistribution value="DoS Attack" recordCount="1"/>
												</Node>
											</Node>
											<Node score="BENIGN" recordCount="1">
												<True/>
												<ScoreDistribution value="BENIGN" recordCount="1"/>
												<ScoreDistribution value="DoS Attack" recordCount="0"/>
											</Node>
										</Node>
										<Node score="BENIGN" recordCount="1">
											<True/>
											<ScoreDistribution value="BENIGN" recordCount="1"/>
											<ScoreDistribution value="DoS Attack" recordCount="0"/>
										</Node>
									</Node>
									<Node score="BENIGN" recordCount="1">
										<True/>
										<ScoreDistribution value="BENIGN" recordCount="1"/>
										<ScoreDistribution value="DoS Attack" recordCount="0"/>
									</Node>
								</Node>
								<Node score="DoS Attack" recordCount="1">
									<SimplePredicate field="double(Bwd PSH Flags)" operator="lessOrEqual" value="2.0"/>
									<ScoreDistribution value="BENIGN" recordCount="0"/>
									<ScoreDistribution value="DoS Attack" recordCount="1"/>
								</Node>
								<Node score="BENIGN" recordCount="1">
									<True/>
									<ScoreDistribution value="BENIGN" recordCount="1"/>
									<ScoreDistribution value="DoS Attack" recordCount="0"/>
								</Node>
							</Node>
							<Node score="BENIGN" recordCount="1">
								<True/>
								<ScoreDistribution value="BENIGN" recordCount="1"/>
								<ScoreDistribution value="DoS Attack" recordCount="0"/>
							</Node>
						</Node>
						<Node score="BENIGN" recordCount="1">
							<True/>
							<ScoreDistribution value="BENIGN" recordCount="1"/>
							<ScoreDistribution value="DoS Attack" recordCount="0"/>
						</Node>
					</Node>
				</TreeModel>
			</Segment>
			<Segment id="2">
				<True/>
				<TreeModel functionName="classification" missingValueStrategy="nullPrediction">
					<MiningSchema>
						<MiningField name="double(FWD Init Win Bytes)"/>
						<MiningField name="double(Bwd Init Win Bytes)"/>
						<MiningField name="double(Fwd Header Length)"/>
						<MiningField name="double(Fwd Packet Length Std)"/>
						<MiningField name="double(Packet Length Max)"/>
						<MiningField name="double(Fwd IAT Min)"/>
						<MiningField name="double(Total Length of Fwd Packet)"/>
						<MiningField name="double(Bwd Packet Length Max)"/>
						<MiningField name="double(Fwd Act Data Pkts)"/>
						<MiningField name="double(Packet Length Mean)"/>
						<MiningField name="double(ACK Flag Count)"/>
						<MiningField name="double(Bwd Segment Size Avg)"/>
						<MiningField name="double(Flow IAT Min)"/>
						<MiningField name="double(Bwd PSH Flags)"/>
						<MiningField name="double(FIN Flag Count)"/>
						<MiningField name="double(Fwd PSH Flags)"/>
						<MiningField name="double(Average Packet Size)"/>
						<MiningField name="double(Bwd Packet Length Std)"/>
						<MiningField name="double(Packet Length Variance)"/>
						<MiningField name="double(Bwd IAT Total)"/>
						<MiningField name="double(Bwd IAT Min)"/>
						<MiningField name="double(Bwd Packet Length Mean)"/>
						<MiningField name="double(Total Bwd packets)"/>
					</MiningSchema>
					<Node>
						<True/>
						<Node>
							<SimplePredicate field="double(Bwd Segment Size Avg)" operator="lessOrEqual" value="186.98213958740234"/>
							<Node>
								<SimplePredicate field="double(FIN Flag Count)" operator="lessOrEqual" value="2.5"/>
								<Node>
									<SimplePredicate field="double(Fwd PSH Flags)" operator="lessOrEqual" value="10.5"/>
									<Node>
										<SimplePredicate field="double(Total Length of Fwd Packet)" operator="lessOrEqual" value="124579.5"/>
										<Node>
											<SimplePredicate field="double(Fwd IAT Min)" operator="lessOrEqual" value="9.9980548E7"/>
											<Node>
												<SimplePredicate field="double(Bwd Init Win Bytes)" operator="lessOrEqual" value="218.5"/>
												<Node>
													<SimplePredicate field="double(FWD Init Win Bytes)" operator="lessOrEqual" value="26755.5"/>
													<Node>
														<SimplePredicate field="double(Total Length of Fwd Packet)" operator="lessOrEqual" value="25739.5"/>
														<Node>
															<SimplePredicate field="double(Average Packet Size)" operator="lessOrEqual" value="234.46875"/>
															<Node score="BENIGN" recordCount="1">
																<SimplePredicate field="double(Fwd Act Data Pkts)" operator="lessOrEqual" value="111.0"/>
																<ScoreDistribution value="BENIGN" recordCount="1"/>
																<ScoreDistribution value="DoS Attack" recordCount="0"/>
															</Node>
															<Node score="DoS Attack" recordCount="1">
																<True/>
																<ScoreDistribution value="BENIGN" recordCount="0"/>
																<ScoreDistribution value="DoS Attack" recordCount="1"/>
															</Node>
														</Node>
														<Node>
															<SimplePredicate field="double(Average Packet Size)" operator="lessOrEqual" value="234.53125"/>
															<Node score="DoS Attack" recordCount="1">
																<SimplePredicate field="double(Bwd Packet Length Std)" operator="lessOrEqual" value="25.176708221435547"/>
																<ScoreDistribution value="BENIGN" recordCount="0"/>
																<ScoreDistribution value="DoS Attack" recordCount="1"/>
															</Node>
															<Node score="BENIGN" recordCount="1">
																<True/>
																<ScoreDistribution value="BENIGN" recordCount="1"/>
																<ScoreDistribution value="DoS Attack" recordCount="0"/>
															</Node>
														</Node>
														<Node score="BENIGN" recordCount="1">
															<True/>
															<ScoreDistribution value="BENIGN" recordCount="1"/>
															<ScoreDistribution value="DoS Attack" recordCount="0"/>
														</Node>
													</Node>
													<Node score="BENIGN" recordCount="1">
														<SimplePredicate field="double(Flow IAT Min)" operator="lessOrEqual" value="0.5"/>
														<ScoreDistribution value="BENIGN" recordCount="1"/>
														<ScoreDistribution value="DoS Attack" recordCount="0"/>
													</Node>
													<Node score="DoS Attack" recordCount="1">
														<True/>
														<ScoreDistribution value="BENIGN" recordCount="0"/>
														<ScoreDistribution value="DoS Attack" recordCount="1"/>
													</Node>
												</Node>
												<Node>
													<SimplePredicate field="double(Packet Length Mean)" operator="lessOrEqual" value="112.1335220336914"/>
													<Node score="BENIGN" recordCount="1">
														<SimplePredicate field="double(Bwd Packet Length Std)" operator="lessOrEqual" value="255.7748260498047"/>
														<ScoreDistribution value="BENIGN" recordCount="1"/>
														<ScoreDistribution value="DoS Attack" recordCount="0"/>
													</Node>
													<Node score="BENIGN" recordCount="1">
														<SimplePredicate field="double(Fwd Packet Length Std)" operator="lessOrEqual" value="107.81480407714844"/>
														<ScoreDistribution value="BENIGN" recordCount="1"/>
														<ScoreDistribution value="DoS Attack" recordCount="0"/>
													</Node>
													<Node score="DoS Attack" recordCount="1">
														<True/>
														<ScoreDistribution value="BENIGN" recordCount="0"/>
														<ScoreDistribution value="DoS Attack" recordCount="1"/>
													</Node>
												</Node>
												<Node>
													<SimplePredicate field="double(FWD Init Win Bytes)" operator="lessOrEqual" value="27541.5"/>
													<Node score="DoS Attack" recordCount="1">
														<SimplePredicate field="double(Fwd Packet Length Std)" operator="lessOrEqual" value="493.0108337402344"/>
														<ScoreDistribution value="BENIGN" recordCount="0"/>
														<ScoreDistribution value="DoS Attack" recordCount="1"/>
													</Node>
													<Node score="BENIGN" recordCount="1">
														<True/>
														<ScoreDistribution value="BENIGN" recordCount="1"/>
														<ScoreDistribution value="DoS Attack" recordCount="0"/>
													</Node>
												</Node>
												<Node score="BENIGN" recordCount="1">
													<True/>
													<ScoreDistribution value="BENIGN" recordCount="1"/>
													<ScoreDistribution value="DoS Attack" recordCount="0"/>
												</Node>
											</Node>
											<Node>
												<SimplePredicate field="double(Bwd Init Win Bytes)" operator="lessOrEqual" value="221.5"/>
												<Node>
													<SimplePredicate field="double(ACK Flag Count)" operator="lessOrEqual" value="11.5"/>
													<Node>
														<SimplePredicate field="double(Bwd Packet Length Std)" operator="lessOrEqual" value="258.5237045288086"/>
														<Node>
															<SimplePredicate field="double(Bwd Segment Size Avg)" operator="lessOrEqual" value="7.666666507720947"/>
															<Node score="DoS Attack" recordCount="1">
																<SimplePredicate field="double(Fwd IAT Min)" operator="lessOrEqual" value="10.5"/>
																<ScoreDistribution value="BENIGN" recordCount="0"/>
																<ScoreDistribution value="DoS Attack" recordCount="1"/>
															</Node>
															<Node score="BENIGN" recordCount="1">
																<SimplePredicate field="double(FWD Init Win Bytes)" operator="lessOrEqual" value="13570.5"/>
																<ScoreDistribution value="BENIGN" recordCount="1"/>
																<ScoreDistribution value="DoS Attack" recordCount="0"/>
															</Node>
															<Node score="DoS Attack" recordCount="1">
																<True/>
																<ScoreDistribution value="BENIGN" recordCount="0"/>
																<ScoreDistribution value="DoS Attack" recordCount="1"/>
															</Node>
														</Node>
														<Node score="BENIGN" recordCount="1">
															<True/>
															<ScoreDistribution value="BENIGN" recordCount="1"/>
															<ScoreDistribution value="DoS Attack" recordCount="0"/>
														</Node>
													</Node>
													<Node score="DoS Attack" recordCount="1">
														<True/>
														<ScoreDistribution value="BENIGN" recordCount="0"/>
														<ScoreDistribution value="DoS Attack" recordCount="1"/>
													</Node>
												</Node>
												<Node score="BENIGN" recordCount="1">
													<SimplePredicate field="double(Packet Length Mean)" operator="lessOrEqual" value="112.65555191040039"/>
													<ScoreDistribution value="BENIGN" recordCount="1"/>
													<ScoreDistribution value="DoS Attack" recordCount="0"/>
												</Node>
												<Node score="DoS Attack" recordCount="1">
													<SimplePredicate field="double(Packet Length Variance)" operator="lessOrEqual" value="179523.8828125"/>
													<ScoreDistribution value="BENIGN" recordCount="0"/>
													<ScoreDistribution value="DoS Attack" recordCount="1"/>
												</Node>
												<Node score="BENIGN" recordCount="1">
													<True/>
													<ScoreDistribution value="BENIGN" recordCount="1"/>
													<ScoreDistribution value="DoS Attack" recordCount="0"/>
												</Node>
											</Node>
											<Node score="BENIGN" recordCount="1">
												<SimplePredicate field="double(FWD Init Win Bytes)" operator="lessOrEqual" value="25986.0"/>
												<ScoreDistribution value="BENIGN" recordCount="1"/>
												<ScoreDistribution value="DoS Attack" recordCount="0"/>
											</Node>
											<Node>
												<SimplePredicate field="double(Bwd IAT Total)" operator="lessOrEqual" value="0.5"/>
												<Node score="BENIGN" recordCount="1">
													<SimplePredicate field="double(Packet Length Variance)" operator="lessOrEqual" value="12256.973220825195"/>
													<ScoreDistribution value="BENIGN" recordCount="1"/>
													<ScoreDistribution value="DoS Attack" recordCount="0"/>
												</Node>
												<Node score="DoS Attack" recordCount="1">
													<True/>
													<ScoreDistribution value="BENIGN" recordCount="0"/>
													<ScoreDistribution value="DoS Attack" recordCount="1"/>
												</Node>
											</Node>
											<Node score="DoS Attack" recordCount="1">
												<SimplePredicate field="double(Bwd Init Win Bytes)" operator="lessOrEqual" value="244.0"/>
												<ScoreDistribution value="BENIGN" recordCount="0"/>
												<ScoreDistribution value="DoS Attack" recordCount="1"/>
											</Node>
											<Node score="BENIGN" recordCount="1">
												<SimplePredicate field="double(Bwd IAT Min)" operator="lessOrEqual" value="3.0744625E7"/>
												<ScoreDistribution value="BENIGN" recordCount="1"/>
												<ScoreDistribution value="DoS Attack" recordCount="0"/>
											</Node>
											<Node score="DoS Attack" recordCount="1">
												<True/>
												<ScoreDistribution value="BENIGN" recordCount="0"/>
												<ScoreDistribution value="DoS Attack" recordCount="1"/>
											</Node>
										</Node>
										<Node score="BENIGN" recordCount="1">
											<SimplePredicate field="double(ACK Flag Count)" operator="lessOrEqual" value="3.5"/>
											<ScoreDistribution value="BENIGN" recordCount="1"/>
											<ScoreDistribution value="DoS Attack" recordCount="0"/>
										</Node>
										<Node score="DoS Attack" recordCount="1">
											<SimplePredicate field="double(Bwd Packet Length Max)" operator="lessOrEqual" value="0.5"/>
											<ScoreDistribution value="BENIGN" recordCount="0"/>
											<ScoreDistribution value="DoS Attack" recordCount="1"/>
										</Node>
										<Node score="BENIGN" recordCount="1">
											<True/>
											<ScoreDistribution value="BENIGN" recordCount="1"/>
											<ScoreDistribution value="DoS Attack" recordCount="0"/>
										</Node>
									</Node>
									<Node score="DoS Attack" recordCount="1">
										<SimplePredicate field="double(Packet Length Variance)" operator="lessOrEqual" value="246952.890625"/>
										<ScoreDistribution value="BENIGN" recordCount="0"/>
										<ScoreDistribution value="DoS Attack" recordCount="1"/>
									</Node>
									<Node score="BENIGN" recordCount="1">
										<True/>
										<ScoreDistribution value="BENIGN" recordCount="1"/>
										<ScoreDistribution value="DoS Attack" recordCount="0"/>
									</Node>
								</Node>
								<Node>
									<SimplePredicate field="double(Bwd Init Win Bytes)" operator="lessOrEqual" value="16.0"/>
									<Node>
										<SimplePredicate field="double(Bwd PSH Flags)" operator="lessOrEqual" value="1.5"/>
										<Node score="BENIGN" recordCount="1">
											<SimplePredicate field="double(Packet Length Max)" operator="lessOrEqual" value="144.0"/>
											<ScoreDistribution value="BENIGN" recordCount="1"/>
											<ScoreDistribution value="DoS Attack" recordCount="0"/>
										</Node>
										<Node score="DoS Attack" recordCount="1">
											<True/>
											<ScoreDistribution value="BENIGN" recordCount="0"/>
											<ScoreDistribution value="DoS Attack" recordCount="1"/>
										</Node>
									</Node>
									<Node score="BENIGN" recordCount="1">
										<True/>
										<ScoreDistribution value="BENIGN" recordCount="1"/>
										<ScoreDistribution value="DoS Attack" recordCount="0"/>
									</Node>
								</Node>
								<Node score="DoS Attack" recordCount="1">
									<SimplePredicate field="double(Bwd Packet Length Mean)" operator="lessOrEqual" value="0.630232572555542"/>
									<ScoreDistribution value="BENIGN" recordCount="0"/>
									<ScoreDistribution value="DoS Attack" recordCount="1"/>
								</Node>
								<Node score="BENIGN" recordCount="1">
									<True/>
									<ScoreDistribution value="BENIGN" recordCount="1"/>
									<ScoreDistribution value="DoS Attack" recordCount="0"/>
								</Node>
							</Node>
							<Node>
								<SimplePredicate field="double(FWD Init Win Bytes)" operator="lessOrEqual" value="21666.5"/>
								<Node>
									<SimplePredicate field="double(ACK Flag Count)" operator="lessOrEqual" value="6.5"/>
									<Node score="BENIGN" recordCount="1">
										<SimplePredicate field="double(Bwd Packet Length Max)" operator="lessOrEqual" value="281.0"/>
										<ScoreDistribution value="BENIGN" recordCount="1"/>
										<ScoreDistribution value="DoS Attack" recordCount="0"/>
									</Node>
									<Node score="DoS Attack" recordCount="1">
										<True/>
										<ScoreDistribution value="BENIGN" recordCount="0"/>
										<ScoreDistribution value="DoS Attack" recordCount="1"/>
									</Node>
								</Node>
								<Node score="BENIGN" recordCount="1">
									<True/>
									<ScoreDistribution value="BENIGN" recordCount="1"/>
									<ScoreDistribution value="DoS Attack" recordCount="0"/>
								</Node>
							</Node>
							<Node score="BENIGN" recordCount="1">
								<SimplePredicate field="double(Bwd Packet Length Mean)" operator="lessOrEqual" value="119.05555725097656"/>
								<ScoreDistribution value="BENIGN" recordCount="1"/>
								<ScoreDistribution value="DoS Attack" recordCount="0"/>
							</Node>
							<Node score="DoS Attack" recordCount="1">
								<SimplePredicate field="double(Fwd Act Data Pkts)" operator="lessOrEqual" value="11.5"/>
								<ScoreDistribution value="BENIGN" recordCount="0"/>
								<ScoreDistribution value="DoS Attack" recordCount="1"/>
							</Node>
							<Node score="BENIGN" recordCount="1">
								<True/>
								<ScoreDistribution value="BENIGN" recordCount="1"/>
								<ScoreDistribution value="DoS Attack" recordCount="0"/>
							</Node>
						</Node>
						<Node>
							<SimplePredicate field="double(Packet Length Max)" operator="lessOrEqual" value="972.5"/>
							<Node>
								<SimplePredicate field="double(Bwd Packet Length Max)" operator="lessOrEqual" value="934.5"/>
								<Node score="BENIGN" recordCount="1">
									<SimplePredicate field="double(Bwd Init Win Bytes)" operator="lessOrEqual" value="218.5"/>
									<ScoreDistribution value="BENIGN" recordCount="1"/>
									<ScoreDistribution value="DoS Attack" recordCount="0"/>
								</Node>
								<Node>
									<SimplePredicate field="double(Total Bwd packets)" operator="lessOrEqual" value="3.5"/>
									<Node score="BENIGN" recordCount="1">
										<SimplePredicate field="double(Fwd Header Length)" operator="lessOrEqual" value="144.0"/>
										<ScoreDistribution value="BENIGN" recordCount="1"/>
										<ScoreDistribution value="DoS Attack" recordCount="0"/>
									</Node>
									<Node score="DoS Attack" recordCount="1">
										<True/>
										<ScoreDistribution value="BENIGN" recordCount="0"/>
										<ScoreDistribution value="DoS Attack" recordCount="1"/>
									</Node>
								</Node>
								<Node score="BENIGN" recordCount="1">
									<True/>
									<ScoreDistribution value="BENIGN" recordCount="1"/>
									<ScoreDistribution value="DoS Attack" recordCount="0"/>
								</Node>
							</Node>
							<Node>
								<SimplePredicate field="double(Bwd IAT Total)" operator="lessOrEqual" value="1.10510288E8"/>
								<Node>
									<SimplePredicate field="double(Total Bwd packets)" operator="lessOrEqual" value="5.5"/>
									<Node>
										<SimplePredicate field="double(Flow IAT Min)" operator="lessOrEqual" value="24.5"/>
										<Node>
											<SimplePredicate field="double(Bwd PSH Flags)" operator="lessOrEqual" value="1.5"/>
											<Node score="BENIGN" recordCount="1">
												<SimplePredicate field="double(Bwd IAT Min)" operator="lessOrEqual" value="0.5"/>
												<ScoreDistribution value="BENIGN" recordCount="1"/>
												<ScoreDistribution value="DoS Attack" recordCount="0"/>
											</Node>
											<Node>
												<SimplePredicate field="double(Flow IAT Min)" operator="lessOrEqual" value="20.5"/>
												<Node>
													<SimplePredicate field="double(Bwd Init Win Bytes)" operator="lessOrEqual" value="28944.0"/>
													<Node score="BENIGN" recordCount="1">
														<SimplePredicate field="double(ACK Flag Count)" operator="lessOrEqual" value="5.0"/>
														<ScoreDistribution value="BENIGN" recordCount="1"/>
														<ScoreDistribution value="DoS Attack" recordCount="0"/>
													</Node>
													<Node>
														<SimplePredicate field="double(Bwd Init Win Bytes)" operator="lessOrEqual" value="165.0"/>
														<Node score="BENIGN" recordCount="1">
															<SimplePredicate field="double(Fwd PSH Flags)" operator="lessOrEqual" value="1.5"/>
															<ScoreDistribution value="BENIGN" recordCount="1"/>
															<ScoreDistribution value="DoS Attack" recordCount="0"/>
														</Node>
														<Node score="DoS Attack" recordCount="1">
															<True/>
															<ScoreDistribution value="BENIGN" recordCount="0"/>
															<ScoreDistribution value="DoS Attack" recordCount="1"/>
														</Node>
													</Node>
													<Node score="DoS Attack" recordCount="1">
														<True/>
														<ScoreDistribution value="BENIGN" recordCount="0"/>
														<ScoreDistribution value="DoS Attack" recordCount="1"/>
													</Node>
												</Node>
												<Node score="BENIGN" recordCount="1">
													<True/>
													<ScoreDistribution value="BENIGN" recordCount="1"/>
													<ScoreDistribution value="DoS Attack" recordCount="0"/>
												</Node>
											</Node>
											<Node>
												<SimplePredicate field="double(Bwd Packet Length Std)" operator="lessOrEqual" value="450.42498779296875"/>
												<Node score="DoS Attack" recordCount="1">
													<SimplePredicate field="double(ACK Flag Count)" operator="lessOrEqual" value="9.5"/>
													<ScoreDistribution value="BENIGN" recordCount="0"/>
													<ScoreDistribution value="DoS Attack" recordCount="1"/>
												</Node>
												<Node score="BENIGN" recordCount="1">
													<True/>
													<ScoreDistribution value="BENIGN" recordCount="1"/>
													<ScoreDistribution value="DoS Attack" recordCount="0"/>
												</Node>
											</Node>
											<Node score="DoS Attack" recordCount="1">
												<SimplePredicate field="double(Packet Length Variance)" operator="lessOrEqual" value="123374.86328125"/>
												<ScoreDistribution value="BENIGN" recordCount="0"/>
												<ScoreDistribution value="DoS Attack" recordCount="1"/>
											</Node>
											<Node score="DoS Attack" recordCount="1">
												<SimplePredicate field="double(Bwd Packet Length Mean)" operator="lessOrEqual" value="283.3333282470703"/>
												<ScoreDistribution value="BENIGN" recordCount="0"/>
												<ScoreDistribution value="DoS Attack" recordCount="1"/>
											</Node>
											<Node score="BENIGN" recordCount="1">
												<True/>
												<ScoreDistribution value="BENIGN" recordCount="1"/>
												<ScoreDistribution value="DoS Attack" recordCount="0"/>
											</Node>
										</Node>
										<Node score="BENIGN" recordCount="1">
											<True/>
											<ScoreDistribution value="BENIGN" recordCount="1"/>
											<ScoreDistribution value="DoS Attack" recordCount="0"/>
										</Node>
									</Node>
									<Node score="BENIGN" recordCount="1">
										<SimplePredicate field="double(Fwd Header Length)" operator="lessOrEqual" value="250.0"/>
										<ScoreDistribution value="BENIGN" recordCount="1"/>
										<ScoreDistribution value="DoS Attack" recordCount="0"/>
									</Node>
									<Node score="DoS Attack" recordCount="1">
										<True/>
										<ScoreDistribution value="BENIGN" recordCount="0"/>
										<ScoreDistribution value="DoS Attack" recordCount="1"/>
									</Node>
								</Node>
								<Node score="DoS Attack" recordCount="1">
									<SimplePredicate field="double(Fwd IAT Min)" operator="lessOrEqual" value="15.5"/>
									<ScoreDistribution value="BENIGN" recordCount="0"/>
									<ScoreDistribution value="DoS Attack" recordCount="1"/>
								</Node>
								<Node score="BENIGN" recordCount="1">
									<True/>
									<ScoreDistribution value="BENIGN" recordCount="1"/>
									<ScoreDistribution value="DoS Attack" recordCount="0"/>
								</Node>
							</Node>
							<Node score="BENIGN" recordCount="1">
								<SimplePredicate field="double(Bwd Packet Length Max)" operator="lessOrEqual" value="971.5"/>
								<ScoreDistribution value="BENIGN" recordCount="1"/>
								<ScoreDistribution value="DoS Attack" recordCount="0"/>
							</Node>
							<Node score="DoS Attack" recordCount="1">
								<True/>
								<ScoreDistribution value="BENIGN" recordCount="0"/>
								<ScoreDistribution value="DoS Attack" recordCount="1"/>
							</Node>
						</Node>
						<Node score="BENIGN" recordCount="1">
							<True/>
							<ScoreDistribution value="BENIGN" recordCount="1"/>
							<ScoreDistribution value="DoS Attack" recordCount="0"/>
						</Node>
					</Node>
				</TreeModel>
			</Segment>
			<Segment id="3">
				<True/>
				<TreeModel functionName="classification" missingValueStrategy="nullPrediction">
					<MiningSchema>
						<MiningField name="double(FWD Init Win Bytes)"/>
						<MiningField name="double(Fwd Packet Length Max)"/>
						<MiningField name="double(Fwd Header Length)"/>
						<MiningField name="double(Fwd Packet Length Std)"/>
						<MiningField name="double(Packet Length Max)"/>
						<MiningField name="double(Fwd IAT Min)"/>
						<MiningField name="double(Fwd Segment Size Avg)"/>
						<MiningField name="double(Total Length of Fwd Packet)"/>
						<MiningField name="double(Fwd Act Data Pkts)"/>
						<MiningField name="double(Packet Length Mean)"/>
						<MiningField name="double(ACK Flag Count)"/>
						<MiningField name="double(Bwd Segment Size Avg)"/>
						<MiningField name="double(Packet Length Std)"/>
						<MiningField name="double(Bwd PSH Flags)"/>
						<MiningField name="double(FIN Flag Count)"/>
						<MiningField name="double(Fwd PSH Flags)"/>
						<MiningField name="double(Bwd Packet Length Std)"/>
						<MiningField name="double(Packet Length Variance)"/>
						<MiningField name="double(Total Bwd packets)"/>
						<MiningField name="double(Bwd IAT Std)"/>
						<MiningField name="double(Total Fwd Packet)"/>
					</MiningSchema>
					<Node>
						<True/>
						<Node>
							<SimplePredicate field="double(FWD Init Win Bytes)" operator="lessOrEqual" value="26764.0"/>
							<Node>
								<SimplePredicate field="double(Bwd Segment Size Avg)" operator="lessOrEqual" value="240.98148345947266"/>
								<Node>
									<SimplePredicate field="double(Fwd Act Data Pkts)" operator="lessOrEqual" value="1057.0"/>
									<Node>
										<SimplePredicate field="double(Total Length of Fwd Packet)" operator="lessOrEqual" value="21.0"/>
										<Node score="BENIGN" recordCount="1">
											<SimplePredicate field="double(Fwd Packet Length Max)" operator="lessOrEqual" value="4.5"/>
											<ScoreDistribution value="BENIGN" recordCount="1"/>
											<ScoreDistribution value="DoS Attack" recordCount="0"/>
										</Node>
										<Node score="DoS Attack" recordCount="1">
											<SimplePredicate field="double(Fwd Header Length)" operator="lessOrEqual" value="150.0"/>
											<ScoreDistribution value="BENIGN" recordCount="0"/>
											<ScoreDistribution value="DoS Attack" recordCount="1"/>
										</Node>
										<Node score="BENIGN" recordCount="1">
											<True/>
											<ScoreDistribution value="BENIGN" recordCount="1"/>
											<ScoreDistribution value="DoS Attack" recordCount="0"/>
										</Node>
									</Node>
									<Node>
										<SimplePredicate field="double(Bwd Segment Size Avg)" operator="lessOrEqual" value="0.20000000298023224"/>
										<Node>
											<SimplePredicate field="double(Fwd Act Data Pkts)" operator="lessOrEqual" value="110.5"/>
											<Node score="BENIGN" recordCount="1">
												<SimplePredicate field="double(Packet Length Variance)" operator="lessOrEqual" value="26335.25"/>
												<ScoreDistribution value="BENIGN" recordCount="1"/>
												<ScoreDistribution value="DoS Attack" recordCount="0"/>
											</Node>
											<Node score="DoS Attack" recordCount="1">
												<SimplePredicate field="double(Total Length of Fwd Packet)" operator="lessOrEqual" value="328.5"/>
												<ScoreDistribution value="BENIGN" recordCount="0"/>
												<ScoreDistribution value="DoS Attack" recordCount="1"/>
											</Node>
											<Node>
												<SimplePredicate field="double(FWD Init Win Bytes)" operator="lessOrEqual" value="239.5"/>
												<Node score="DoS Attack" recordCount="1">
													<SimplePredicate field="double(Packet Length Std)" operator="lessOrEqual" value="342.4891052246094"/>
													<ScoreDistribution value="BENIGN" recordCount="0"/>
													<ScoreDistribution value="DoS Attack" recordCount="1"/>
												</Node>
												<Node score="BENIGN" recordCount="1">
													<True/>
													<ScoreDistribution value="BENIGN" recordCount="1"/>
													<ScoreDistribution value="DoS Attack" recordCount="0"/>
												</Node>
											</Node>
											<Node score="BENIGN" recordCount="1">
												<True/>
												<ScoreDistribution value="BENIGN" recordCount="1"/>
												<ScoreDistribution value="DoS Attack" recordCount="0"/>
											</Node>
										</Node>
										<Node score="DoS Attack" recordCount="1">
											<True/>
											<ScoreDistribution value="BENIGN" recordCount="0"/>
											<ScoreDistribution value="DoS Attack" recordCount="1"/>
										</Node>
									</Node>
									<Node score="BENIGN" recordCount="1">
										<True/>
										<ScoreDistribution value="BENIGN" recordCount="1"/>
										<ScoreDistribution value="DoS Attack" recordCount="0"/>
									</Node>
								</Node>
								<Node score="DoS Attack" recordCount="1">
									<True/>
									<ScoreDistribution value="BENIGN" recordCount="0"/>
									<ScoreDistribution value="DoS Attack" recordCount="1"/>
								</Node>
							</Node>
							<Node>
								<SimplePredicate field="double(Bwd Segment Size Avg)" operator="lessOrEqual" value="241.00980377197266"/>
								<Node score="DoS Attack" recordCount="1">
									<SimplePredicate field="double(Fwd Packet Length Max)" operator="lessOrEqual" value="24.0"/>
									<ScoreDistribution value="BENIGN" recordCount="0"/>
									<ScoreDistribution value="DoS Attack" recordCount="1"/>
								</Node>
								<Node score="BENIGN" recordCount="1">
									<True/>
									<ScoreDistribution value="BENIGN" recordCount="1"/>
									<ScoreDistribution value="DoS Attack" recordCount="0"/>
								</Node>
							</Node>
							<Node>
								<SimplePredicate field="double(Fwd Packet Length Std)" operator="lessOrEqual" value="8.866036415100098"/>
								<Node>
									<SimplePredicate field="double(Total Length of Fwd Packet)" operator="lessOrEqual" value="24.0"/>
									<Node score="BENIGN" recordCount="1">
										<SimplePredicate field="double(Fwd PSH Flags)" operator="lessOrEqual" value="0.5"/>
										<ScoreDistribution value="BENIGN" recordCount="1"/>
										<ScoreDistribution value="DoS Attack" recordCount="0"/>
									</Node>
									<Node score="DoS Attack" recordCount="1">
										<True/>
										<ScoreDistribution value="BENIGN" recordCount="0"/>
										<ScoreDistribution value="DoS Attack" recordCount="1"/>
									</Node>
								</Node>
								<Node score="BENIGN" recordCount="1">
									<True/>
									<ScoreDistribution value="BENIGN" recordCount="1"/>
									<ScoreDistribution value="DoS Attack" recordCount="0"/>
								</Node>
							</Node>
							<Node score="BENIGN" recordCount="1">
								<True/>
								<ScoreDistribution value="BENIGN" recordCount="1"/>
								<ScoreDistribution value="DoS Attack" recordCount="0"/>
							</Node>
						</Node>
						<Node>
							<SimplePredicate field="double(FIN Flag Count)" operator="lessOrEqual" value="0.5"/>
							<Node>
								<SimplePredicate field="double(Bwd IAT Std)" operator="lessOrEqual" value="4725997.25"/>
								<Node>
									<SimplePredicate field="double(Packet Length Variance)" operator="lessOrEqual" value="113851.94140625"/>
									<Node>
										<SimplePredicate field="double(Bwd Segment Size Avg)" operator="lessOrEqual" value="323.9574432373047"/>
										<Node>
											<SimplePredicate field="double(ACK Flag Count)" operator="lessOrEqual" value="7.5"/>
											<Node score="BENIGN" recordCount="1">
												<SimplePredicate field="double(Packet Length Max)" operator="lessOrEqual" value="168.0"/>
												<ScoreDistribution value="BENIGN" recordCount="1"/>
												<ScoreDistribution value="DoS Attack" recordCount="0"/>
											</Node>
											<Node>
												<SimplePredicate field="double(Packet Length Mean)" operator="lessOrEqual" value="59.5"/>
												<Node score="DoS Attack" recordCount="1">
													<SimplePredicate field="double(Packet Length Std)" operator="lessOrEqual" value="130.80997467041016"/>
													<ScoreDistribution value="BENIGN" recordCount="0"/>
													<ScoreDistribution value="DoS Attack" recordCount="1"/>
												</Node>
												<Node score="BENIGN" recordCount="1">
													<True/>
													<ScoreDistribution value="BENIGN" recordCount="1"/>
													<ScoreDistribution value="DoS Attack" recordCount="0"/>
												</Node>
											</Node>
											<Node score="BENIGN" recordCount="1">
												<SimplePredicate field="double(Fwd Packet Length Max)" operator="lessOrEqual" value="177.5"/>
												<ScoreDistribution value="BENIGN" recordCount="1"/>
												<ScoreDistribution value="DoS Attack" recordCount="0"/>
											</Node>
											<Node score="BENIGN" recordCount="1">
												<SimplePredicate field="double(Fwd Act Data Pkts)" operator="lessOrEqual" value="0.5"/>
												<ScoreDistribution value="BENIGN" recordCount="1"/>
												<ScoreDistribution value="DoS Attack" recordCount="0"/>
											</Node>
											<Node>
												<SimplePredicate field="double(Packet Length Max)" operator="lessOrEqual" value="754.0"/>
												<Node score="DoS Attack" recordCount="1">
													<SimplePredicate field="double(Total Bwd packets)" operator="lessOrEqual" value="2.5"/>
													<ScoreDistribution value="BENIGN" recordCount="0"/>
													<ScoreDistribution value="DoS Attack" recordCount="1"/>
												</Node>
												<Node score="BENIGN" recordCount="1">
													<SimplePredicate field="double(Fwd Header Length)" operator="lessOrEqual" value="124.0"/>
													<ScoreDistribution value="BENIGN" recordCount="1"/>
													<ScoreDistribution value="DoS Attack" recordCount="0"/>
												</Node>
												<Node score="DoS Attack" recordCount="1">
													<True/>
													<ScoreDistribution value="BENIGN" recordCount="0"/>
													<ScoreDistribution value="DoS Attack" recordCount="1"/>
												</Node>
											</Node>
											<Node score="BENIGN" recordCount="1">
												<True/>
												<ScoreDistribution value="BENIGN" recordCount="1"/>
												<ScoreDistribution value="DoS Attack" recordCount="0"/>
											</Node>
										</Node>
										<Node>
											<SimplePredicate field="double(Total Bwd packets)" operator="lessOrEqual" value="3.5"/>
											<Node score="DoS Attack" recordCount="1">
												<SimplePredicate field="double(FWD Init Win Bytes)" operator="lessOrEqual" value="27777.5"/>
												<ScoreDistribution value="BENIGN" recordCount="0"/>
												<ScoreDistribution value="DoS Attack" recordCount="1"/>
											</Node>
											<Node score="BENIGN" recordCount="1">
												<True/>
												<ScoreDistribution value="BENIGN" recordCount="1"/>
												<ScoreDistribution value="DoS Attack" recordCount="0"/>
											</Node>
										</Node>
										<Node score="BENIGN" recordCount="1">
											<True/>
											<ScoreDistribution value="BENIGN" recordCount="1"/>
											<ScoreDistribution value="DoS Attack" recordCount="0"/>
										</Node>
									</Node>
									<Node score="DoS Attack" recordCount="1">
										<SimplePredicate field="double(FWD Init Win Bytes)" operator="lessOrEqual" value="27899.0"/>
										<ScoreDistribution value="BENIGN" recordCount="0"/>
										<ScoreDistribution value="DoS Attack" recordCount="1"/>
									</Node>
									<Node score="BENIGN" recordCount="1">
										<True/>
										<ScoreDistribution value="BENIGN" recordCount="1"/>
										<ScoreDistribution value="DoS Attack" recordCount="0"/>
									</Node>
								</Node>
								<Node>
									<SimplePredicate field="double(Fwd Header Length)" operator="lessOrEqual" value="170.0"/>
									<Node score="DoS Attack" recordCount="1">
										<SimplePredicate field="double(Packet Length Max)" operator="lessOrEqual" value="1060.5"/>
										<ScoreDistribution value="BENIGN" recordCount="0"/>
										<ScoreDistribution value="DoS Attack" recordCount="1"/>
									</Node>
									<Node score="BENIGN" recordCount="1">
										<True/>
										<ScoreDistribution value="BENIGN" recordCount="1"/>
										<ScoreDistribution value="DoS Attack" recordCount="0"/>
									</Node>
								</Node>
								<Node score="DoS Attack" recordCount="1">
									<SimplePredicate field="double(Total Fwd Packet)" operator="lessOrEqual" value="7.5"/>
									<ScoreDistribution value="BENIGN" recordCount="0"/>
									<ScoreDistribution value="DoS Attack" recordCount="1"/>
								</Node>
								<Node score="DoS Attack" recordCount="1">
									<SimplePredicate field="double(Packet Length Max)" operator="lessOrEqual" value="1022.5"/>
									<ScoreDistribution value="BENIGN" recordCount="0"/>
									<ScoreDistribution value="DoS Attack" recordCount="1"/>
								</Node>
								<Node score="BENIGN" recordCount="1">
									<True/>
									<ScoreDistribution value="BENIGN" recordCount="1"/>
									<ScoreDistribution value="DoS Attack" recordCount="0"/>
								</Node>
							</Node>
							<Node>
								<SimplePredicate field="double(Bwd PSH Flags)" operator="lessOrEqual" value="1.5"/>
								<Node>
									<SimplePredicate field="double(Fwd IAT Min)" operator="lessOrEqual" value="3079.0"/>
									<Node score="BENIGN" recordCount="1">
										<SimplePredicate field="double(Fwd Segment Size Avg)" operator="lessOrEqual" value="34.678571701049805"/>
										<ScoreDistribution value="BENIGN" recordCount="1"/>
										<ScoreDistribution value="DoS Attack" recordCount="0"/>
									</Node>
									<Node score="DoS Attack" recordCount="1">
										<SimplePredicate field="double(Packet Length Std)" operator="lessOrEqual" value="662.9027557373047"/>
										<ScoreDistribution value="BENIGN" recordCount="0"/>
										<ScoreDistribution value="DoS Attack" recordCount="1"/>
									</Node>
									<Node score="BENIGN" recordCount="1">
										<True/>
										<ScoreDistribution value="BENIGN" recordCount="1"/>
										<ScoreDistribution value="DoS Attack" recordCount="0"/>
									</Node>
								</Node>
								<Node score="BENIGN" recordCount="1">
									<True/>
									<ScoreDistribution value="BENIGN" recordCount="1"/>
									<ScoreDistribution value="DoS Attack" recordCount="0"/>
								</Node>
							</Node>
							<Node score="BENIGN" recordCount="1">
								<True/>
								<ScoreDistribution value="BENIGN" recordCount="1"/>
								<ScoreDistribution value="DoS Attack" recordCount="0"/>
							</Node>
						</Node>
						<Node>
							<SimplePredicate field="double(Packet Length Std)" operator="lessOrEqual" value="192.2812728881836"/>
							<Node>
								<SimplePredicate field="double(Packet Length Mean)" operator="lessOrEqual" value="115.95833206176758"/>
								<Node>
									<SimplePredicate field="double(FWD Init Win Bytes)" operator="lessOrEqual" value="27041.5"/>
									<Node score="BENIGN" recordCount="1">
										<SimplePredicate field="double(Packet Length Max)" operator="lessOrEqual" value="488.0"/>
										<ScoreDistribution value="BENIGN" recordCount="1"/>
										<ScoreDistribution value="DoS Attack" recordCount="0"/>
									</Node>
									<Node score="DoS Attack" recordCount="1">
										<True/>
										<ScoreDistribution value="BENIGN" recordCount="0"/>
										<ScoreDistribution value="DoS Attack" recordCount="1"/>
									</Node>
								</Node>
								<Node score="BENIGN" recordCount="1">
									<True/>
									<ScoreDistribution value="BENIGN" recordCount="1"/>
									<ScoreDistribution value="DoS Attack" recordCount="0"/>
								</Node>
							</Node>
							<Node score="DoS Attack" recordCount="1">
								<SimplePredicate field="double(FWD Init Win Bytes)" operator="lessOrEqual" value="28041.5"/>
								<ScoreDistribution value="BENIGN" recordCount="0"/>
								<ScoreDistribution value="DoS Attack" recordCount="1"/>
							</Node>
							<Node score="BENIGN" recordCount="1">
								<True/>
								<ScoreDistribution value="BENIGN" recordCount="1"/>
								<ScoreDistribution value="DoS Attack" recordCount="0"/>
							</Node>
						</Node>
						<Node>
							<SimplePredicate field="double(Packet Length Std)" operator="lessOrEqual" value="386.4403991699219"/>
							<Node>
								<SimplePredicate field="double(Bwd PSH Flags)" operator="lessOrEqual" value="1.5"/>
								<Node score="BENIGN" recordCount="1">
									<SimplePredicate field="double(Bwd Packet Length Std)" operator="lessOrEqual" value="211.2455825805664"/>
									<ScoreDistribution value="BENIGN" recordCount="1"/>
									<ScoreDistribution value="DoS Attack" recordCount="0"/>
								</Node>
								<Node score="DoS Attack" recordCount="1">
									<True/>
									<ScoreDistribution value="BENIGN" recordCount="0"/>
									<ScoreDistribution value="DoS Attack" recordCount="1"/>
								</Node>
							</Node>
							<Node score="BENIGN" recordCount="1">
								<True/>
								<ScoreDistribution value="BENIGN" recordCount="1"/>
								<ScoreDistribution value="DoS Attack" recordCount="0"/>
							</Node>
						</Node>
						<Node score="BENIGN" recordCount="1">
							<True/>
							<ScoreDistribution value="BENIGN" recordCount="1"/>
							<ScoreDistribution value="DoS Attack" recordCount="0"/>
						</Node>
					</Node>
				</TreeModel>
			</Segment>
			<Segment id="4">
				<True/>
				<TreeModel functionName="classification" missingValueStrategy="nullPrediction">
					<MiningSchema>
						<MiningField name="double(FWD Init Win Bytes)"/>
						<MiningField name="double(Fwd Packet Length Max)"/>
						<MiningField name="double(Bwd Init Win Bytes)"/>
						<MiningField name="double(Fwd Header Length)"/>
						<MiningField name="double(Fwd Packet Length Std)"/>
						<MiningField name="double(Packet Length Max)"/>
						<MiningField name="double(Fwd IAT Min)"/>
						<MiningField name="double(Fwd Segment Size Avg)"/>
						<MiningField name="double(Total Length of Fwd Packet)"/>
						<MiningField name="double(Bwd Packet Length Max)"/>
						<MiningField name="double(Fwd Act Data Pkts)"/>
						<MiningField name="double(Packet Length Mean)"/>
						<MiningField name="double(ACK Flag Count)"/>
						<MiningField name="double(PSH Flag Count)"/>
						<MiningField name="double(Bwd Segment Size Avg)"/>
						<MiningField name="double(Packet Length Std)"/>
						<MiningField name="double(Flow IAT Min)"/>
						<MiningField name="double(Bwd PSH Flags)"/>
						<MiningField name="double(FIN Flag Count)"/>
						<MiningField name="double(Fwd PSH Flags)"/>
						<MiningField name="double(Bwd Packet Length Std)"/>
						<MiningField name="double(Packet Length Variance)"/>
						<MiningField name="double(Bwd IAT Total)"/>
						<MiningField name="double(Bwd IAT Min)"/>
						<MiningField name="double(Bwd Packet Length Mean)"/>
						<MiningField name="double(Total Bwd packets)"/>
						<MiningField name="double(Total Fwd Packet)"/>
					</MiningSchema>
					<Node>
						<True/>
						<Node>
							<SimplePredicate field="double(Bwd Packet Length Mean)" operator="lessOrEqual" value="186.98213958740234"/>
							<Node>
								<SimplePredicate field="double(FWD Init Win Bytes)" operator="lessOrEqual" value="26755.5"/>
								<Node>
									<SimplePredicate field="double(Bwd Segment Size Avg)" operator="lessOrEqual" value="0.10000000149011612"/>
									<Node>
										<SimplePredicate field="double(Total Fwd Packet)" operator="lessOrEqual" value="112.5"/>
										<Node>
											<SimplePredicate field="double(Total Fwd Packet)" operator="lessOrEqual" value="2.5"/>
											<Node score="BENIGN" recordCount="1">
												<SimplePredicate field="double(Fwd PSH Flags)" operator="lessOrEqual" value="0.5"/>
												<ScoreDistribution value="BENIGN" recordCount="1"/>
												<ScoreDistribution value="DoS Attack" recordCount="0"/>
											</Node>
											<Node score="DoS Attack" recordCount="1">
												<SimplePredicate field="double(Packet Length Max)" operator="lessOrEqual" value="19.5"/>
												<ScoreDistribution value="BENIGN" recordCount="0"/>
												<ScoreDistribution value="DoS Attack" recordCount="1"/>
											</Node>
											<Node score="BENIGN" recordCount="1">
												<SimplePredicate field="double(Packet Length Max)" operator="lessOrEqual" value="163.0"/>
												<ScoreDistribution value="BENIGN" recordCount="1"/>
												<ScoreDistribution value="DoS Attack" recordCount="0"/>
											</Node>
											<Node score="DoS Attack" recordCount="1">
												<SimplePredicate field="double(Fwd Packet Length Max)" operator="lessOrEqual" value="414.0"/>
												<ScoreDistribution value="BENIGN" recordCount="0"/>
												<ScoreDistribution value="DoS Attack" recordCount="1"/>
											</Node>
											<Node score="BENIGN" recordCount="1">
												<True/>
												<ScoreDistribution value="BENIGN" recordCount="1"/>
												<ScoreDistribution value="DoS Attack" recordCount="0"/>
											</Node>
										</Node>
										<Node score="BENIGN" recordCount="1">
											<True/>
											<ScoreDistribution value="BENIGN" recordCount="1"/>
											<ScoreDistribution value="DoS Attack" recordCount="0"/>
										</Node>
									</Node>
									<Node score="DoS Attack" recordCount="1">
										<True/>
										<ScoreDistribution value="BENIGN" recordCount="0"/>
										<ScoreDistribution value="DoS Attack" recordCount="1"/>
									</Node>
								</Node>
								<Node score="BENIGN" recordCount="1">
									<SimplePredicate field="double(Bwd Init Win Bytes)" operator="lessOrEqual" value="218.5"/>
									<ScoreDistribution value="BENIGN" recordCount="1"/>
									<ScoreDistribution value="DoS Attack" recordCount="0"/>
								</Node>
								<Node>
									<SimplePredicate field="double(Fwd Segment Size Avg)" operator="lessOrEqual" value="2.291666626930237"/>
									<Node score="BENIGN" recordCount="1">
										<SimplePredicate field="double(Bwd Packet Length Std)" operator="lessOrEqual" value="243.8927001953125"/>
										<ScoreDistribution value="BENIGN" recordCount="1"/>
										<ScoreDistribution value="DoS Attack" recordCount="0"/>
									</Node>
									<Node score="BENIGN" recordCount="1">
										<SimplePredicate field="double(PSH Flag Count)" operator="lessOrEqual" value="1.5"/>
										<ScoreDistribution value="BENIGN" recordCount="1"/>
										<ScoreDistribution value="DoS Attack" recordCount="0"/>
									</Node>
									<Node score="DoS Attack" recordCount="1">
										<True/>
										<ScoreDistribution value="BENIGN" recordCount="0"/>
										<ScoreDistribution value="DoS Attack" recordCount="1"/>
									</Node>
								</Node>
								<Node score="BENIGN" recordCount="1">
									<True/>
									<ScoreDistribution value="BENIGN" recordCount="1"/>
									<ScoreDistribution value="DoS Attack" recordCount="0"/>
								</Node>
							</Node>
							<Node>
								<SimplePredicate field="double(Flow IAT Min)" operator="lessOrEqual" value="14.5"/>
								<Node>
									<SimplePredicate field="double(Fwd Header Length)" operator="lessOrEqual" value="196.0"/>
									<Node>
										<SimplePredicate field="double(Fwd IAT Min)" operator="lessOrEqual" value="52.5"/>
										<Node>
											<SimplePredicate field="double(Bwd Init Win Bytes)" operator="lessOrEqual" value="238.0"/>
											<Node>
												<SimplePredicate field="double(Fwd Header Length)" operator="lessOrEqual" value="164.0"/>
												<Node score="BENIGN" recordCount="1">
													<SimplePredicate field="double(Fwd Packet Length Std)" operator="lessOrEqual" value="94.79809951782227"/>
													<ScoreDistribution value="BENIGN" recordCount="1"/>
													<ScoreDistribution value="DoS Attack" recordCount="0"/>
												</Node>
												<Node score="DoS Attack" recordCount="1">
													<SimplePredicate field="double(Packet Length Mean)" operator="lessOrEqual" value="147.6923065185547"/>
													<ScoreDistribution value="BENIGN" recordCount="0"/>
													<ScoreDistribution value="DoS Attack" recordCount="1"/>
												</Node>
												<Node score="BENIGN" recordCount="1">
													<True/>
													<ScoreDistribution value="BENIGN" recordCount="1"/>
													<ScoreDistribution value="DoS Attack" recordCount="0"/>
												</Node>
											</Node>
											<Node score="DoS Attack" recordCount="1">
												<SimplePredicate field="double(Total Fwd Packet)" operator="lessOrEqual" value="6.5"/>
												<ScoreDistribution value="BENIGN" recordCount="0"/>
												<ScoreDistribution value="DoS Attack" recordCount="1"/>
											</Node>
											<Node score="BENIGN" recordCount="1">
												<True/>
												<ScoreDistribution value="BENIGN" recordCount="1"/>
												<ScoreDistribution value="DoS Attack" recordCount="0"/>
											</Node>
										</Node>
										<Node score="BENIGN" recordCount="1">
											<True/>
											<ScoreDistribution value="BENIGN" recordCount="1"/>
											<ScoreDistribution value="DoS Attack" recordCount="0"/>
										</Node>
									</Node>
									<Node>
										<SimplePredicate field="double(ACK Flag Count)" operator="lessOrEqual" value="8.5"/>
										<Node score="BENIGN" recordCount="1">
											<SimplePredicate field="double(Fwd Segment Size Avg)" operator="lessOrEqual" value="31.63333225250244"/>
											<ScoreDistribution value="BENIGN" recordCount="1"/>
											<ScoreDistribution value="DoS Attack" recordCount="0"/>
										</Node>
										<Node score="BENIGN" recordCount="1">
											<SimplePredicate field="double(Total Fwd Packet)" operator="lessOrEqual" value="2.5"/>
											<ScoreDistribution value="BENIGN" recordCount="1"/>
											<ScoreDistribution value="DoS Attack" recordCount="0"/>
										</Node>
										<Node score="BENIGN" recordCount="1">
											<SimplePredicate field="double(Fwd Packet Length Std)" operator="lessOrEqual" value="76.81731414794922"/>
											<ScoreDistribution value="BENIGN" recordCount="1"/>
											<ScoreDistribution value="DoS Attack" recordCount="0"/>
										</Node>
										<Node score="DoS Attack" recordCount="1">
											<SimplePredicate field="double(Fwd Packet Length Std)" operator="lessOrEqual" value="526.4563140869141"/>
											<ScoreDistribution value="BENIGN" recordCount="0"/>
											<ScoreDistribution value="DoS Attack" recordCount="1"/>
										</Node>
										<Node score="BENIGN" recordCount="1">
											<True/>
											<ScoreDistribution value="BENIGN" recordCount="1"/>
											<ScoreDistribution value="DoS Attack" recordCount="0"/>
										</Node>
									</Node>
									<Node score="BENIGN" recordCount="1">
										<SimplePredicate field="double(Packet Length Variance)" operator="lessOrEqual" value="65030.345703125"/>
										<ScoreDistribution value="BENIGN" recordCount="1"/>
										<ScoreDistribution value="DoS Attack" recordCount="0"/>
									</Node>
									<Node score="BENIGN" recordCount="1">
										<SimplePredicate field="double(FWD Init Win Bytes)" operator="lessOrEqual" value="64967.5"/>
										<ScoreDistribution value="BENIGN" recordCount="1"/>
										<ScoreDistribution value="DoS Attack" recordCount="0"/>
									</Node>
									<Node score="DoS Attack" recordCount="1">
										<True/>
										<ScoreDistribution value="BENIGN" recordCount="0"/>
										<ScoreDistribution value="DoS Attack" recordCount="1"/>
									</Node>
								</Node>
								<Node>
									<SimplePredicate field="double(Bwd Init Win Bytes)" operator="lessOrEqual" value="244.5"/>
									<Node>
										<SimplePredicate field="double(Packet Length Std)" operator="lessOrEqual" value="110.47405242919922"/>
										<Node score="DoS Attack" recordCount="1">
											<SimplePredicate field="double(ACK Flag Count)" operator="lessOrEqual" value="9.0"/>
											<ScoreDistribution value="BENIGN" recordCount="0"/>
											<ScoreDistribution value="DoS Attack" recordCount="1"/>
										</Node>
										<Node score="BENIGN" recordCount="1">
											<True/>
											<ScoreDistribution value="BENIGN" recordCount="1"/>
											<ScoreDistribution value="DoS Attack" recordCount="0"/>
										</Node>
									</Node>
									<Node score="DoS Attack" recordCount="1">
										<SimplePredicate field="double(Bwd PSH Flags)" operator="lessOrEqual" value="1.5"/>
										<ScoreDistribution value="BENIGN" recordCount="0"/>
										<ScoreDistribution value="DoS Attack" recordCount="1"/>
									</Node>
									<Node score="BENIGN" recordCount="1">
										<True/>
										<ScoreDistribution value="BENIGN" recordCount="1"/>
										<ScoreDistribution value="DoS Attack" recordCount="0"/>
									</Node>
								</Node>
								<Node>
									<SimplePredicate field="double(FWD Init Win Bytes)" operator="lessOrEqual" value="27541.5"/>
									<Node score="DoS Attack" recordCount="1">
										<SimplePredicate field="double(Packet Length Std)" operator="lessOrEqual" value="280.2173538208008"/>
										<ScoreDistribution value="BENIGN" recordCount="0"/>
										<ScoreDistribution value="DoS Attack" recordCount="1"/>
									</Node>
									<Node score="BENIGN" recordCount="1">
										<True/>
										<ScoreDistribution value="BENIGN" recordCount="1"/>
										<ScoreDistribution value="DoS Attack" recordCount="0"/>
									</Node>
								</Node>
								<Node score="BENIGN" recordCount="1">
									<True/>
									<ScoreDistribution value="BENIGN" recordCount="1"/>
									<ScoreDistribution value="DoS Attack" recordCount="0"/>
								</Node>
							</Node>
							<Node>
								<SimplePredicate field="double(Bwd IAT Min)" operator="lessOrEqual" value="3.0744528E7"/>
								<Node>
									<SimplePredicate field="double(Packet Length Max)" operator="lessOrEqual" value="504.0"/>
									<Node>
										<SimplePredicate field="double(Flow IAT Min)" operator="lessOrEqual" value="20.5"/>
										<Node score="BENIGN" recordCount="1">
											<SimplePredicate field="double(Fwd Act Data Pkts)" operator="lessOrEqual" value="2.5"/>
											<ScoreDistribution value="BENIGN" recordCount="1"/>
											<ScoreDistribution value="DoS Attack" recordCount="0"/>
										</Node>
										<Node score="DoS Attack" recordCount="1">
											<SimplePredicate field="double(ACK Flag Count)" operator="lessOrEqual" value="8.0"/>
											<ScoreDistribution value="BENIGN" recordCount="0"/>
											<ScoreDistribution value="DoS Attack" recordCount="1"/>
										</Node>
										<Node score="BENIGN" recordCount="1">
											<True/>
											<ScoreDistribution value="BENIGN" recordCount="1"/>
											<ScoreDistribution value="DoS Attack" recordCount="0"/>
										</Node>
									</Node>
									<Node score="BENIGN" recordCount="1">
										<True/>
										<ScoreDistribution value="BENIGN" recordCount="1"/>
										<ScoreDistribution value="DoS Attack" recordCount="0"/>
									</Node>
								</Node>
								<Node score="DoS Attack" recordCount="1">
									<SimplePredicate field="double(FWD Init Win Bytes)" operator="lessOrEqual" value="28041.5"/>
									<ScoreDistribution value="BENIGN" recordCount="0"/>
									<ScoreDistribution value="DoS Attack" recordCount="1"/>
								</Node>
								<Node score="BENIGN" recordCount="1">
									<True/>
									<ScoreDistribution value="BENIGN" recordCount="1"/>
									<ScoreDistribution value="DoS Attack" recordCount="0"/>
								</Node>
							</Node>
							<Node score="BENIGN" recordCount="1">
								<SimplePredicate field="double(Fwd Packet Length Max)" operator="lessOrEqual" value="115.5"/>
								<ScoreDistribution value="BENIGN" recordCount="1"/>
								<ScoreDistribution value="DoS Attack" recordCount="0"/>
							</Node>
							<Node score="DoS Attack" recordCount="1">
								<True/>
								<ScoreDistribution value="BENIGN" recordCount="0"/>
								<ScoreDistribution value="DoS Attack" recordCount="1"/>
							</Node>
						</Node>
						<Node>
							<SimplePredicate field="double(Bwd PSH Flags)" operator="lessOrEqual" value="1.5"/>
							<Node score="BENIGN" recordCount="1">
								<SimplePredicate field="double(Fwd PSH Flags)" operator="lessOrEqual" value="0.5"/>
								<ScoreDistribution value="BENIGN" recordCount="1"/>
								<ScoreDistribution value="DoS Attack" recordCount="0"/>
							</Node>
							<Node>
								<SimplePredicate field="double(ACK Flag Count)" operator="lessOrEqual" value="13.5"/>
								<Node>
									<SimplePredicate field="double(Packet Length Variance)" operator="lessOrEqual" value="158237.9609375"/>
									<Node score="BENIGN" recordCount="1">
										<SimplePredicate field="double(FWD Init Win Bytes)" operator="lessOrEqual" value="6552.5"/>
										<ScoreDistribution value="BENIGN" recordCount="1"/>
										<ScoreDistribution value="DoS Attack" recordCount="0"/>
									</Node>
									<Node>
										<SimplePredicate field="double(Fwd Packet Length Max)" operator="lessOrEqual" value="430.5"/>
										<Node>
											<SimplePredicate field="double(Flow IAT Min)" operator="lessOrEqual" value="25.5"/>
											<Node>
												<SimplePredicate field="double(Packet Length Std)" operator="lessOrEqual" value="374.916015625"/>
												<Node>
													<SimplePredicate field="double(Bwd Packet Length Max)" operator="lessOrEqual" value="982.0"/>
													<Node>
														<SimplePredicate field="double(Packet Length Std)" operator="lessOrEqual" value="261.32005310058594"/>
														<Node>
															<SimplePredicate field="double(Packet Length Variance)" operator="lessOrEqual" value="68186.33984375"/>
															<Node score="BENIGN" recordCount="1">
																<SimplePredicate field="double(Bwd PSH Flags)" operator="lessOrEqual" value="0.5"/>
																<ScoreDistribution value="BENIGN" recordCount="1"/>
																<ScoreDistribution value="DoS Attack" recordCount="0"/>
															</Node>
															<Node score="DoS Attack" recordCount="1">
																<SimplePredicate field="double(FIN Flag Count)" operator="lessOrEqual" value="1.0"/>
																<ScoreDistribution value="BENIGN" recordCount="0"/>
																<ScoreDistribution value="DoS Attack" recordCount="1"/>
															</Node>
															<Node score="BENIGN" recordCount="1">
																<SimplePredicate field="double(FWD Init Win Bytes)" operator="lessOrEqual" value="17537.5"/>
																<ScoreDistribution value="BENIGN" recordCount="1"/>
																<ScoreDistribution value="DoS Attack" recordCount="0"/>
															</Node>
															<Node score="DoS Attack" recordCount="1">
																<True/>
																<ScoreDistribution value="BENIGN" recordCount="0"/>
																<ScoreDistribution value="DoS Attack" recordCount="1"/>
															</Node>
														</Node>
														<Node score="DoS Attack" recordCount="1">
															<SimplePredicate field="double(Bwd IAT Total)" operator="lessOrEqual" value="2040216.0"/>
															<ScoreDistribution value="BENIGN" recordCount="0"/>
															<ScoreDistribution value="DoS Attack" recordCount="1"/>
														</Node>
														<Node score="BENIGN" recordCount="1">
															<True/>
															<ScoreDistribution value="BENIGN" recordCount="1"/>
															<ScoreDistribution value="DoS Attack" recordCount="0"/>
														</Node>
													</Node>
													<Node score="BENIGN" recordCount="1">
														<SimplePredicate field="double(Bwd IAT Min)" operator="lessOrEqual" value="0.5"/>
														<ScoreDistribution value="BENIGN" recordCount="1"/>
														<ScoreDistribution value="DoS Attack" recordCount="0"/>
													</Node>
													<Node>
														<SimplePredicate field="double(Bwd Init Win Bytes)" operator="lessOrEqual" value="28944.0"/>
														<Node score="BENIGN" recordCount="1">
															<SimplePredicate field="double(Bwd Packet Length Max)" operator="lessOrEqual" value="879.0"/>
															<ScoreDistribution value="BENIGN" recordCount="1"/>
															<ScoreDistribution value="DoS Attack" recordCount="0"/>
														</Node>
														<Node score="DoS Attack" recordCount="1">
															<True/>
															<ScoreDistribution value="BENIGN" recordCount="0"/>
															<ScoreDistribution value="DoS Attack" recordCount="1"/>
														</Node>
													</Node>
													<Node score="BENIGN" recordCount="1">
														<True/>
														<ScoreDistribution value="BENIGN" recordCount="1"/>
														<ScoreDistribution value="DoS Attack" recordCount="0"/>
													</Node>
												</Node>
												<Node score="BENIGN" recordCount="1">
													<True/>
													<ScoreDistribution value="BENIGN" recordCount="1"/>
													<ScoreDistribution value="DoS Attack" recordCount="0"/>
												</Node>
											</Node>
											<Node score="BENIGN" recordCount="1">
												<True/>
												<ScoreDistribution value="BENIGN" recordCount="1"/>
												<ScoreDistribution value="DoS Attack" recordCount="0"/>
											</Node>
										</Node>
										<Node>
											<SimplePredicate field="double(Total Length of Fwd Packet)" operator="lessOrEqual" value="1703.5"/>
											<Node score="BENIGN" recordCount="1">
												<SimplePredicate field="double(Bwd Segment Size Avg)" operator="lessOrEqual" value="236.75"/>
												<ScoreDistribution value="BENIGN" recordCount="1"/>
												<ScoreDistribution value="DoS Attack" recordCount="0"/>
											</Node>
											<Node score="DoS Attack" recordCount="1">
												<SimplePredicate field="double(Flow IAT Min)" operator="lessOrEqual" value="25233.5"/>
												<ScoreDistribution value="BENIGN" recordCount="0"/>
												<ScoreDistribution value="DoS Attack" recordCount="1"/>
											</Node>
											<Node score="BENIGN" recordCount="1">
												<True/>
												<ScoreDistribution value="BENIGN" recordCount="1"/>
												<ScoreDistribution value="DoS Attack" recordCount="0"/>
											</Node>
										</Node>
										<Node score="DoS Attack" recordCount="1">
											<True/>
											<ScoreDistribution value="BENIGN" recordCount="0"/>
											<ScoreDistribution value="DoS Attack" recordCount="1"/>
										</Node>
									</Node>
									<Node score="BENIGN" recordCount="1">
										<SimplePredicate field="double(Fwd Header Length)" operator="lessOrEqual" value="160.0"/>
										<ScoreDistribution value="BENIGN" recordCount="1"/>
										<ScoreDistribution value="DoS Attack" recordCount="0"/>
									</Node>
									<Node score="BENIGN" recordCount="1">
										<SimplePredicate field="double(FWD Init Win Bytes)" operator="lessOrEqual" value="17537.5"/>
										<ScoreDistribution value="BENIGN" recordCount="1"/>
										<ScoreDistribution value="DoS Attack" recordCount="0"/>
									</Node>
									<Node score="DoS Attack" recordCount="1">
										<True/>
										<ScoreDistribution value="BENIGN" recordCount="0"/>
										<ScoreDistribution value="DoS Attack" recordCount="1"/>
									</Node>
								</Node>
								<Node>
									<SimplePredicate field="double(Total Bwd packets)" operator="lessOrEqual" value="3.5"/>
									<Node>
										<SimplePredicate field="double(Packet Length Max)" operator="lessOrEqual" value="994.0"/>
										<Node score="DoS Attack" recordCount="1">
											<SimplePredicate field="double(Bwd Packet Length Mean)" operator="lessOrEqual" value="371.25"/>
											<ScoreDistribution value="BENIGN" recordCount="0"/>
											<ScoreDistribution value="DoS Attack" recordCount="1"/>
										</Node>
										<Node score="BENIGN" recordCount="1">
											<True/>
											<ScoreDistribution value="BENIGN" recordCount="1"/>
											<ScoreDistribution value="DoS Attack" recordCount="0"/>
										</Node>
									</Node>
									<Node score="BENIGN" recordCount="1">
										<True/>
										<ScoreDistribution value="BENIGN" recordCount="1"/>
										<ScoreDistribution value="DoS Attack" recordCount="0"/>
									</Node>
								</Node>
								<Node score="BENIGN" recordCount="1">
									<True/>
									<ScoreDistribution value="BENIGN" recordCount="1"/>
									<ScoreDistribution value="DoS Attack" recordCount="0"/>
								</Node>
							</Node>
							<Node score="DoS Attack" recordCount="1">
								<SimplePredicate field="double(Packet Length Max)" operator="lessOrEqual" value="1176.0"/>
								<ScoreDistribution value="BENIGN" recordCount="0"/>
								<ScoreDistribution value="DoS Attack" recordCount="1"/>
							</Node>
							<Node score="BENIGN" recordCount="1">
								<True/>
								<ScoreDistribution value="BENIGN" recordCount="1"/>
								<ScoreDistribution value="DoS Attack" recordCount="0"/>
							</Node>
						</Node>
						<Node>
							<SimplePredicate field="double(Fwd Packet Length Max)" operator="lessOrEqual" value="25.5"/>
							<Node score="DoS Attack" recordCount="1">
								<SimplePredicate field="double(Packet Length Std)" operator="lessOrEqual" value="471.8439483642578"/>
								<ScoreDistribution value="BENIGN" recordCount="0"/>
								<ScoreDistribution value="DoS Attack" recordCount="1"/>
							</Node>
							<Node score="BENIGN" recordCount="1">
								<True/>
								<ScoreDistribution value="BENIGN" recordCount="1"/>
								<ScoreDistribution value="DoS Attack" recordCount="0"/>
							</Node>
						</Node>
						<Node score="BENIGN" recordCount="1">
							<True/>
							<ScoreDistribution value="BENIGN" recordCount="1"/>
							<ScoreDistribution value="DoS Attack" recordCount="0"/>
						</Node>
					</Node>
				</TreeModel>
			</Segment>
			<Segment id="5">
				<True/>
				<TreeModel functionName="classification" missingValueStrategy="nullPrediction">
					<MiningSchema>
						<MiningField name="double(FWD Init Win Bytes)"/>
						<MiningField name="double(Fwd Packet Length Max)"/>
						<MiningField name="double(Bwd Init Win Bytes)"/>
						<MiningField name="double(Fwd Header Length)"/>
						<MiningField name="double(Fwd Packet Length Std)"/>
						<MiningField name="double(Packet Length Max)"/>
						<MiningField name="double(Fwd Segment Size Avg)"/>
						<MiningField name="double(Total Length of Fwd Packet)"/>
						<MiningField name="double(Bwd Packet Length Max)"/>
						<MiningField name="double(Fwd Act Data Pkts)"/>
						<MiningField name="double(Packet Length Mean)"/>
						<MiningField name="double(ACK Flag Count)"/>
						<MiningField name="double(PSH Flag Count)"/>
						<MiningField name="double(Bwd Segment Size Avg)"/>
						<MiningField name="double(Packet Length Std)"/>
						<MiningField name="double(Flow IAT Min)"/>
						<MiningField name="double(Total Length of Bwd Packet)"/>
						<MiningField name="double(FIN Flag Count)"/>
						<MiningField name="double(Bwd Packet Length Std)"/>
						<MiningField name="double(Packet Length Variance)"/>
						<MiningField name="double(Bwd IAT Total)"/>
						<MiningField name="double(Bwd IAT Min)"/>
						<MiningField name="double(Bwd Packet Length Mean)"/>
						<MiningField name="double(Total Bwd packets)"/>
						<MiningField name="double(Bwd IAT Std)"/>
						<MiningField name="double(Total Fwd Packet)"/>
					</MiningSchema>
					<Node>
						<True/>
						<Node>
							<SimplePredicate field="double(Bwd Segment Size Avg)" operator="lessOrEqual" value="186.98213958740234"/>
							<Node>
								<SimplePredicate field="double(Total Fwd Packet)" operator="lessOrEqual" value="1344.0"/>
								<Node>
									<SimplePredicate field="double(Fwd Header Length)" operator="lessOrEqual" value="198.0"/>
									<Node>
										<SimplePredicate field="double(Fwd Segment Size Avg)" operator="lessOrEqual" value="8.071428775787354"/>
										<Node score="BENIGN" recordCount="1">
											<SimplePredicate field="double(PSH Flag Count)" operator="lessOrEqual" value="0.5"/>
											<ScoreDistribution value="BENIGN" recordCount="1"/>
											<ScoreDistribution value="DoS Attack" recordCount="0"/>
										</Node>
										<Node>
											<SimplePredicate field="double(FIN Flag Count)" operator="lessOrEqual" value="0.5"/>
											<Node score="BENIGN" recordCount="1">
												<SimplePredicate field="double(Fwd Segment Size Avg)" operator="lessOrEqual" value="7.916666746139526"/>
												<ScoreDistribution value="BENIGN" recordCount="1"/>
												<ScoreDistribution value="DoS Attack" recordCount="0"/>
											</Node>
											<Node score="DoS Attack" recordCount="1">
												<True/>
												<ScoreDistribution value="BENIGN" recordCount="0"/>
												<ScoreDistribution value="DoS Attack" recordCount="1"/>
											</Node>
										</Node>
										<Node score="BENIGN" recordCount="1">
											<SimplePredicate field="double(Bwd Packet Length Std)" operator="lessOrEqual" value="255.25"/>
											<ScoreDistribution value="BENIGN" recordCount="1"/>
											<ScoreDistribution value="DoS Attack" recordCount="0"/>
										</Node>
										<Node score="BENIGN" recordCount="1">
											<SimplePredicate field="double(Fwd Header Length)" operator="lessOrEqual" value="98.0"/>
											<ScoreDistribution value="BENIGN" recordCount="1"/>
											<ScoreDistribution value="DoS Attack" recordCount="0"/>
										</Node>
										<Node score="DoS Attack" recordCount="1">
											<True/>
											<ScoreDistribution value="BENIGN" recordCount="0"/>
											<ScoreDistribution value="DoS Attack" recordCount="1"/>
										</Node>
									</Node>
									<Node>
										<SimplePredicate field="double(Packet Length Variance)" operator="lessOrEqual" value="24766.962890625"/>
										<Node>
											<SimplePredicate field="double(Fwd Header Length)" operator="lessOrEqual" value="166.0"/>
											<Node>
												<SimplePredicate field="double(Fwd Header Length)" operator="lessOrEqual" value="134.0"/>
												<Node>
													<SimplePredicate field="double(Bwd Segment Size Avg)" operator="lessOrEqual" value="0.625"/>
													<Node score="BENIGN" recordCount="1">
														<SimplePredicate field="double(Fwd Packet Length Max)" operator="lessOrEqual" value="223.0"/>
														<ScoreDistribution value="BENIGN" recordCount="1"/>
														<ScoreDistribution value="DoS Attack" recordCount="0"/>
													</Node>
													<Node>
														<SimplePredicate field="double(Total Length of Fwd Packet)" operator="lessOrEqual" value="360.0"/>
														<Node>
															<SimplePredicate field="double(Total Length of Fwd Packet)" operator="lessOrEqual" value="296.0"/>
															<Node>
																<SimplePredicate field="double(Flow IAT Min)" operator="lessOrEqual" value="22.5"/>
																<Node score="BENIGN" recordCount="1">
																	<SimplePredicate field="double(Fwd Header Length)" operator="lessOrEqual" value="82.0"/>
																	<ScoreDistribution value="BENIGN" recordCount="1"/>
																	<ScoreDistribution value="DoS Attack" recordCount="0"/>
																</Node>
																<Node score="DoS Attack" recordCount="1">
																	<True/>
																	<ScoreDistribution value="BENIGN" recordCount="0"/>
																	<ScoreDistribution value="DoS Attack" recordCount="1"/>
																</Node>
															</Node>
															<Node score="BENIGN" recordCount="1">
																<True/>
																<ScoreDistribution value="BENIGN" recordCount="1"/>
																<ScoreDistribution value="DoS Attack" recordCount="0"/>
															</Node>
														</Node>
														<Node score="DoS Attack" recordCount="1">
															<True/>
															<ScoreDistribution value="BENIGN" recordCount="0"/>
															<ScoreDistribution value="DoS Attack" recordCount="1"/>
														</Node>
													</Node>
													<Node score="BENIGN" recordCount="1">
														<True/>
														<ScoreDistribution value="BENIGN" recordCount="1"/>
														<ScoreDistribution value="DoS Attack" recordCount="0"/>
													</Node>
												</Node>
												<Node score="BENIGN" recordCount="1">
													<True/>
													<ScoreDistribution value="BENIGN" recordCount="1"/>
													<ScoreDistribution value="DoS Attack" recordCount="0"/>
												</Node>
											</Node>
											<Node>
												<SimplePredicate field="double(Total Fwd Packet)" operator="lessOrEqual" value="4.5"/>
												<Node score="BENIGN" recordCount="1">
													<SimplePredicate field="double(Packet Length Max)" operator="lessOrEqual" value="185.0"/>
													<ScoreDistribution value="BENIGN" recordCount="1"/>
													<ScoreDistribution value="DoS Attack" recordCount="0"/>
												</Node>
												<Node score="DoS Attack" recordCount="1">
													<True/>
													<ScoreDistribution value="BENIGN" recordCount="0"/>
													<ScoreDistribution value="DoS Attack" recordCount="1"/>
												</Node>
											</Node>
											<Node score="BENIGN" recordCount="1">
												<True/>
												<ScoreDistribution value="BENIGN" recordCount="1"/>
												<ScoreDistribution value="DoS Attack" recordCount="0"/>
											</Node>
										</Node>
										<Node>
											<SimplePredicate field="double(Bwd Packet Length Std)" operator="lessOrEqual" value="1.29099440574646"/>
											<Node score="BENIGN" recordCount="1">
												<SimplePredicate field="double(Fwd Packet Length Max)" operator="lessOrEqual" value="229.5"/>
												<ScoreDistribution value="BENIGN" recordCount="1"/>
												<ScoreDistribution value="DoS Attack" recordCount="0"/>
											</Node>
											<Node score="DoS Attack" recordCount="1">
												<SimplePredicate field="double(Total Length of Fwd Packet)" operator="lessOrEqual" value="341.0"/>
												<ScoreDistribution value="BENIGN" recordCount="0"/>
												<ScoreDistribution value="DoS Attack" recordCount="1"/>
											</Node>
											<Node score="BENIGN" recordCount="1">
												<True/>
												<ScoreDistribution value="BENIGN" recordCount="1"/>
												<ScoreDistribution value="DoS Attack" recordCount="0"/>
											</Node>
										</Node>
										<Node score="BENIGN" recordCount="1">
											<True/>
											<ScoreDistribution value="BENIGN" recordCount="1"/>
											<ScoreDistribution value="DoS Attack" recordCount="0"/>
										</Node>
									</Node>
									<Node>
										<SimplePredicate field="double(Fwd Packet Length Max)" operator="lessOrEqual" value="425.5"/>
										<Node>
											<SimplePredicate field="double(Total Bwd packets)" operator="lessOrEqual" value="4.5"/>
											<Node>
												<SimplePredicate field="double(FIN Flag Count)" operator="lessOrEqual" value="1.5"/>
												<Node>
													<SimplePredicate field="double(Packet Length Std)" operator="lessOrEqual" value="160.22706604003906"/>
													<Node score="DoS Attack" recordCount="1">
														<SimplePredicate field="double(Packet Length Std)" operator="lessOrEqual" value="158.3487091064453"/>
														<ScoreDistribution value="BENIGN" recordCount="0"/>
														<ScoreDistribution value="DoS Attack" recordCount="1"/>
													</Node>
													<Node score="BENIGN" recordCount="1">
														<True/>
														<ScoreDistribution value="BENIGN" recordCount="1"/>
														<ScoreDistribution value="DoS Attack" recordCount="0"/>
													</Node>
												</Node>
												<Node>
													<SimplePredicate field="double(FWD Init Win Bytes)" operator="lessOrEqual" value="17537.5"/>
													<Node score="DoS Attack" recordCount="1">
														<SimplePredicate field="double(Total Length of Bwd Packet)" operator="lessOrEqual" value="162.5"/>
														<ScoreDistribution value="BENIGN" recordCount="0"/>
														<ScoreDistribution value="DoS Attack" recordCount="1"/>
													</Node>
													<Node score="BENIGN" recordCount="1">
														<True/>
														<ScoreDistribution value="BENIGN" recordCount="1"/>
														<ScoreDistribution value="DoS Attack" recordCount="0"/>
													</Node>
												</Node>
												<Node score="BENIGN" recordCount="1">
													<SimplePredicate field="double(Fwd Header Length)" operator="lessOrEqual" value="102.0"/>
													<ScoreDistribution value="BENIGN" recordCount="1"/>
													<ScoreDistribution value="DoS Attack" recordCount="0"/>
												</Node>
												<Node score="DoS Attack" recordCount="1">
													<True/>
													<ScoreDistribution value="BENIGN" recordCount="0"/>
													<ScoreDistribution value="DoS Attack" recordCount="1"/>
												</Node>
											</Node>
											<Node score="BENIGN" recordCount="1">
												<True/>
												<ScoreDistribution value="BENIGN" recordCount="1"/>
												<ScoreDistribution value="DoS Attack" recordCount="0"/>
											</Node>
										</Node>
										<Node score="DoS Attack" recordCount="1">
											<SimplePredicate field="double(Bwd IAT Total)" operator="lessOrEqual" value="20635.0"/>
											<ScoreDistribution value="BENIGN" recordCount="0"/>
											<ScoreDistribution value="DoS Attack" recordCount="1"/>
										</Node>
										<Node score="BENIGN" recordCount="1">
											<SimplePredicate field="double(FIN Flag Count)" operator="lessOrEqual" value="2.5"/>
											<ScoreDistribution value="BENIGN" recordCount="1"/>
											<ScoreDistribution value="DoS Attack" recordCount="0"/>
										</Node>
										<Node score="BENIGN" recordCount="1">
											<SimplePredicate field="double(Packet Length Mean)" operator="lessOrEqual" value="106.5"/>
											<ScoreDistribution value="BENIGN" recordCount="1"/>
											<ScoreDistribution value="DoS Attack" recordCount="0"/>
										</Node>
										<Node score="DoS Attack" recordCount="1">
											<True/>
											<ScoreDistribution value="BENIGN" recordCount="0"/>
											<ScoreDistribution value="DoS Attack" recordCount="1"/>
										</Node>
									</Node>
									<Node>
										<SimplePredicate field="double(Bwd Packet Length Max)" operator="lessOrEqual" value="666.0"/>
										<Node score="BENIGN" recordCount="1">
											<SimplePredicate field="double(Bwd Packet Length Std)" operator="lessOrEqual" value="326.5807189941406"/>
											<ScoreDistribution value="BENIGN" recordCount="1"/>
											<ScoreDistribution value="DoS Attack" recordCount="0"/>
